{"learner":{"attributes":{"scikit_learn":"{\"_estimator_type\": \"regressor\"}"},"feature_names":["Unnamed: 0","N","P","K","Soil_pH","Soil_Moisture","Organic_Carbon","Temperature","Humidity","Rainfall","Sunlight_Hours","Wind_Speed","Altitude","Fertilizer_Used","Pesticide_Used","Soil_Type_Clay","Soil_Type_Loamy","Soil_Type_Sandy","Soil_Type_Silt","Region_Central","Region_East","Region_North","Region_South","Region_West","Season_Kharif","Season_Rabi","Season_Zaid","Crop_Type_Cotton","Crop_Type_Maize","Crop_Type_Potato","Crop_Type_Rice","Crop_Type_Wheat","Irrigation_Type_Canal","Irrigation_Type_Drip","Irrigation_Type_Rainfed","Irrigation_Type_Sprinkler"],"feature_types":["int","int","int","int","float","float","float","float","float","float","float","float","int","float","float","i","i","i","i","i","i","i","i","i","i","i","i","i","i","i","i","i","i","i","i","i"],"gradient_booster":{"model":{"gbtree_model_param":{"num_parallel_tree":"1","num_trees":"100"},"iteration_indptr":[0,1,2,3,4,5,6,7,8,9,10,11,12,13,14,15,16,17,18,19,20,21,22,23,24,25,26,27,28,29,30,31,32,33,34,35,36,37,38,39,40,41,42,43,44,45,46,47,48,49,50,51,52,53,54,55,56,57,58,59,60,61,62,63,64,65,66,67,68,69,70,71,72,73,74,75,76,77,78,79,80,81,82,83,84,85,86,87,88,89,90,91,92,93,94,95,96,97,98,99,100],"tree_info":[0,0,0,0,0,0,0,0,0,0,0,0,0,0,0,0,0,0,0,0,0,0,0,0,0,0,0,0,0,0,0,0,0,0,0,0,0,0,0,0,0,0,0,0,0,0,0,0,0,0,0,0,0,0,0,0,0,0,0,0,0,0,0,0,0,0,0,0,0,0,0,0,0,0,0,0,0,0,0,0,0,0,0,0,0,0,0,0,0,0,0,0,0,0,0,0,0,0,0,0],"trees":[{"base_weights":[-2.7169688E-7,-3.1894727E0,1.2784611E1,-2.6990318E0,-4.668002E0,1.2080337E1,1.3499048E1,-3.556001E0,-1.9962522E0,-5.2851696E0,-3.708793E0,3.4034736E0,3.800781E0,3.815354E0,4.235387E0,-4.1540327E0,-3.0050101E0,-2.765782E0,-1.4505105E0,-5.923154E0,-4.497413E0,-4.2986436E0,-2.881105E0,-4.4531746E0,-3.562326E0,-2.5950217E0,-3.724814E0,-3.0688834E0,-2.0433688E0,-1.8089963E0,-7.315203E-1,-2.0074158E0,-5.6202054E0,-5.108489E0,-3.8666985E0,-4.8491073E0,-4.0484514E0,-3.2140126E0,-2.2996228E0,-1.4508789E0,-1.2149966E0,-1.17836E0,-9.444067E-1,-8.905007E-1,-6.7361444E-1,-1.3007243E0,-1.0310249E0,-8.264554E-1,-1.0890656E0,-7.1210575E-1,-4.0315378E-1,-6.536861E-1,-4.124244E-1,-2.9256317E-1,4.509356E-2,-1.7762184E0,-1.4883258E0,-1.6161603E0,-1.2453803E0,-1.0346811E0,-1.2671646E0,-1.5699153E0,-1.2872077E0,-1.5137917E0,-1.169005E0,-8.191533E-1,-1.0773937E0,-7.968383E-1,-5.6761163E-1],"categories":[],"categories_nodes":[],"categories_segments":[],"categories_sizes":[],"default_left":[0,0,0,0,0,0,0,0,0,0,0,0,0,0,0,0,0,0,0,0,0,0,0,0,0,0,0,0,0,0,0,0,0,0,0,0,0,0,0,0,0,0,0,0,0,0,0,0,0,0,0,0,0,0,0,0,0,0,0,0,0,0,0,0,0,0,0,0,0],"id":0,"left_children":[1,3,5,7,9,11,13,15,17,19,21,-1,-1,-1,-1,23,25,27,29,31,33,35,37,39,41,43,45,47,49,51,53,-1,55,57,59,61,63,65,67,-1,-1,-1,-1,-1,-1,-1,-1,-1,-1,-1,-1,-1,-1,-1,-1,-1,-1,-1,-1,-1,-1,-1,-1,-1,-1,-1,-1,-1,-1],"loss_changes":[3.4125575E5,4.844328E3,6.776875E2,3.0234766E3,9.672461E2,2.2485156E2,2.1740625E2,7.3418555E2,1.1580303E3,4.819668E2,3.078828E2,0E0,0E0,0E0,0E0,1.7600977E2,3.394502E2,2.4488086E2,4.1648584E2,9.179492E1,1.5638184E2,3.2840332E1,4.603711E1,9.100293E1,4.3518066E1,9.214307E1,6.0246094E1,1.320791E2,7.583411E1,1.706709E2,1.16404205E2,0E0,5.084961E1,3.8730957E1,1.9602783E1,1.9880371E0,2.0910645E1,2.1753418E1,1.0086243E1,0E0,0E0,0E0,0E0,0E0,0E0,0E0,0E0,0E0,0E0,0E0,0E0,0E0,0E0,0E0,0E0,0E0,0E0,0E0,0E0,0E0,0E0,0E0,0E0,0E0,0E0,0E0,0E0,0E0,0E0],"parents":[2147483647,0,0,1,1,2,2,3,3,4,4,5,5,6,6,7,7,8,8,9,9,10,10,15,15,16,16,17,17,18,18,19,19,20,20,21,21,22,22,23,23,24,24,25,25,26,26,27,27,28,28,29,29,30,30,32,32,33,33,34,34,35,35,36,36,37,37,38,38],"right_children":[2,4,6,8,10,12,14,16,18,20,22,-1,-1,-1,-1,24,26,28,30,32,34,36,38,40,42,44,46,48,50,52,54,-1,56,58,60,62,64,66,68,-1,-1,-1,-1,-1,-1,-1,-1,-1,-1,-1,-1,-1,-1,-1,-1,-1,-1,-1,-1,-1,-1,-1,-1,-1,-1,-1,-1,-1,-1],"split_conditions":[1E0,1E0,2.0429E2,1.9128E2,2.4088E2,1.36174E3,1.44983E3,1.47743E3,1.38587E3,1.64037E3,1.74344E3,3.4034736E0,3.800781E0,3.815354E0,4.235387E0,1E0,1E0,5.046E1,1E0,1.0799E2,1.4915E2,2.902E1,4.725E1,8.9838E2,1.3027E2,1E0,3.181E1,1E0,1E0,2.7561E2,5.574E1,-2.0074158E0,5.016E1,5.069E1,9.28E0,1.16E2,5.24E0,8.81E0,5.9E1,-1.4508789E0,-1.2149966E0,-1.17836E0,-9.444067E-1,-8.905007E-1,-6.7361444E-1,-1.3007243E0,-1.0310249E0,-8.264554E-1,-1.0890656E0,-7.1210575E-1,-4.0315378E-1,-6.536861E-1,-4.124244E-1,-2.9256317E-1,4.509356E-2,-1.7762184E0,-1.4883258E0,-1.6161603E0,-1.2453803E0,-1.0346811E0,-1.2671646E0,-1.5699153E0,-1.2872077E0,-1.5137917E0,-1.169005E0,-8.191533E-1,-1.0773937E0,-7.968383E-1,-5.6761163E-1],"split_indices":[29,27,13,13,13,9,9,9,9,9,9,0,0,0,0,28,31,5,28,13,13,5,5,9,13,28,5,31,28,13,5,0,5,5,11,1,4,11,2,0,0,0,0,0,0,0,0,0,0,0,0,0,0,0,0,0,0,0,0,0,0,0,0,0,0,0,0,0,0],"split_type":[0,0,0,0,0,0,0,0,0,0,0,0,0,0,0,0,0,0,0,0,0,0,0,0,0,0,0,0,0,0,0,0,0,0,0,0,0,0,0,0,0,0,0,0,0,0,0,0,0,0,0,0,0,0,0,0,0,0,0,0,0,0,0,0,0,0,0,0,0],"sum_hessian":[8.367E3,6.697E3,1.67E3,5.031E3,1.666E3,8.5E2,8.2E2,2.265E3,2.766E3,1.011E3,6.55E2,3.87E2,4.63E2,3.72E2,4.48E2,1.083E3,1.182E3,1.146E3,1.62E3,5.55E2,4.56E2,3.8E2,2.75E2,7.15E2,3.68E2,7.56E2,4.26E2,8.05E2,3.41E2,1.08E3,5.4E2,1.51E2,4.04E2,2.28E2,2.28E2,1.13E2,2.67E2,1.72E2,1.03E2,3.61E2,3.54E2,1.91E2,1.77E2,3.62E2,3.94E2,1.32E2,2.94E2,5.2E2,2.85E2,2.3E2,1.11E2,5.81E2,4.99E2,4.23E2,1.17E2,2.72E2,1.32E2,1.73E2,5.5E1,1.1E2,1.18E2,6.2E1,5.1E1,3.1E1,2.36E2,7.9E1,9.3E1,5.2E1,5.1E1],"tree_param":{"num_deleted":"0","num_feature":"36","num_nodes":"69","size_leaf_vector":"1"}},{"base_weights":[-2.0330183E-3,-2.237448E0,8.958357E0,-1.8919114E0,-3.279141E0,8.544995E0,9.650638E0,-2.414961E0,-1.2690711E0,-3.7964644E0,-2.6845584E0,8.253882E0,2.815791E0,2.6810188E0,3.0079467E0,-2.708323E0,-1.7659816E0,-1.6834664E0,-6.809682E-1,-4.4884667E0,-3.3258429E0,-3.0332718E0,-1.9475758E0,7.8590083E0,8.676384E0,-3.0095127E0,-2.2931008E0,-2.248965E0,-1.4436895E0,-1.912195E0,-1.1682183E0,-3.998878E-1,-1.2846185E0,-4.849942E0,-1.2500389E0,-3.6184046E0,-2.7697139E0,-3.3114383E0,-2.7235746E0,-2.2554467E0,-1.5461831E0,2.1386578E0,2.4168627E0,2.4604163E0,2.7404807E0,-1.0226E0,-8.1535405E-1,-6.018544E-1,-8.5878044E-1,-7.762737E-1,-5.7331455E-1,-5.18378E-1,-2.5853577E-1,-6.298435E-1,-4.236402E-1,-4.8017108E-1,-2.5561386E-1,-2.3013884E-1,-3.51458E-2,-5.8183205E-1,-2.714244E-1,-1.1933645E0,-1.5309775E0,-1.1780478E0,-9.718853E-1,-9.971522E-1,-7.306241E-1,-1.1248995E0,-9.350757E-1,-8.6569947E-1,-6.40859E-1,-7.7703184E-1,-5.4729146E-1,-5.7550853E-1,-3.556358E-1],"categories":[],"categories_nodes":[],"categories_segments":[],"categories_sizes":[],"default_left":[0,0,0,0,0,0,0,0,0,0,0,0,0,0,0,0,0,0,0,0,0,0,0,0,0,0,0,0,0,0,0,0,0,0,0,0,0,0,0,0,0,0,0,0,0,0,0,0,0,0,0,0,0,0,0,0,0,0,0,0,0,0,0,0,0,0,0,0,0,0,0,0,0,0,0],"id":1,"left_children":[1,3,5,7,9,11,13,15,17,19,21,23,-1,-1,-1,25,27,29,31,33,35,37,39,41,43,45,47,49,51,53,55,57,59,61,-1,63,65,67,69,71,73,-1,-1,-1,-1,-1,-1,-1,-1,-1,-1,-1,-1,-1,-1,-1,-1,-1,-1,-1,-1,-1,-1,-1,-1,-1,-1,-1,-1,-1,-1,-1,-1,-1,-1],"loss_changes":[1.6763266E5,2.4046914E3,3.9571875E2,1.6362422E3,5.025625E2,1.8080469E2,7.595703E1,5.1573145E2,5.591365E2,2.7459473E2,1.9429248E2,6.3945312E1,0E0,0E0,0E0,2.2833789E2,1.2968848E2,1.5663062E2,1.610162E2,2.1301758E1,7.6697754E1,3.638037E1,2.777771E1,3.0429688E0,6.326172E0,1.172832E2,1.2416113E2,3.3958984E1,8.369116E1,8.432007E1,5.563922E1,6.750484E1,7.3367065E1,1.5487061E1,0E0,2.7700684E1,2.673108E1,1.1583984E1,1.811377E1,1.5619141E1,1.289682E1,0E0,0E0,0E0,0E0,0E0,0E0,0E0,0E0,0E0,0E0,0E0,0E0,0E0,0E0,0E0,0E0,0E0,0E0,0E0,0E0,0E0,0E0,0E0,0E0,0E0,0E0,0E0,0E0,0E0,0E0,0E0,0E0,0E0,0E0],"parents":[2147483647,0,0,1,1,2,2,3,3,4,4,5,5,6,6,7,7,8,8,9,9,10,10,11,11,15,15,16,16,17,17,18,18,19,19,20,20,21,21,22,22,23,23,24,24,25,25,26,26,27,27,28,28,29,29,30,30,31,31,32,32,33,33,35,35,36,36,37,37,38,38,39,39,40,40],"right_children":[2,4,6,8,10,12,14,16,18,20,22,24,-1,-1,-1,26,28,30,32,34,36,38,40,42,44,46,48,50,52,54,56,58,60,62,-1,64,66,68,70,72,74,-1,-1,-1,-1,-1,-1,-1,-1,-1,-1,-1,-1,-1,-1,-1,-1,-1,-1,-1,-1,-1,-1,-1,-1,-1,-1,-1,-1,-1,-1,-1,-1,-1,-1],"split_conditions":[1E0,1E0,2.3842E2,2.1826E2,2.1556E2,2.13113E3,1.19489E3,1.98041E3,1.78986E3,1.3067E3,1.97271E3,4.104E1,2.815791E0,2.6810188E0,3.0079467E0,4.409E1,1.2371E2,1E0,1E0,1.3027E2,4.647E1,1.16914E3,4.232E1,1.0583E2,1.4826E2,1.2589E2,1E0,3.956E1,1E0,5.089E1,2.7353E2,3.582E1,3.482E1,3.96E0,-1.2500389E0,1.4425E2,1.2589E2,2.925E1,1.47E2,8.7E1,5.7E1,2.1386578E0,2.4168627E0,2.4604163E0,2.7404807E0,-1.0226E0,-8.1535405E-1,-6.018544E-1,-8.5878044E-1,-7.762737E-1,-5.7331455E-1,-5.18378E-1,-2.5853577E-1,-6.298435E-1,-4.236402E-1,-4.8017108E-1,-2.5561386E-1,-2.3013884E-1,-3.51458E-2,-5.8183205E-1,-2.714244E-1,-1.1933645E0,-1.5309775E0,-1.1780478E0,-9.718853E-1,-9.971522E-1,-7.306241E-1,-1.1248995E0,-9.350757E-1,-8.6569947E-1,-6.40859E-1,-7.7703184E-1,-5.4729146E-1,-5.7550853E-1,-3.556358E-1],"split_indices":[29,27,13,13,13,9,9,9,9,9,9,5,0,0,0,5,13,28,31,13,5,9,5,13,13,13,31,5,28,5,13,5,5,11,0,13,13,5,1,3,2,0,0,0,0,0,0,0,0,0,0,0,0,0,0,0,0,0,0,0,0,0,0,0,0,0,0,0,0,0,0,0,0,0,0],"split_type":[0,0,0,0,0,0,0,0,0,0,0,0,0,0,0,0,0,0,0,0,0,0,0,0,0,0,0,0,0,0,0,0,0,0,0,0,0,0,0,0,0,0,0,0,0,0,0,0,0,0,0,0,0,0,0,0,0,0,0,0,0,0,0,0,0,0,0,0,0,0,0,0,0,0,0],"sum_hessian":[8.367E3,6.697E3,1.67E3,5.031E3,1.666E3,1.054E3,6.16E2,2.733E3,2.298E3,8.88E2,7.78E2,7.91E2,2.63E2,2.21E2,3.95E2,1.88E3,8.53E2,1.347E3,9.51E2,3.56E2,5.32E2,5.26E2,2.52E2,4.19E2,3.72E2,1.086E3,7.94E2,3.39E2,5.14E2,9.31E2,4.16E2,6.5E2,3.01E2,1.61E2,1.95E2,3.45E2,1.87E2,2.72E2,2.54E2,1.4E2,1.12E2,9.7E1,3.22E2,1.92E2,1.8E2,4.54E2,6.32E2,5.31E2,2.63E2,1.66E2,1.73E2,3.44E2,1.7E2,6.75E2,2.56E2,1.74E2,2.42E2,2.82E2,3.68E2,1.09E2,1.92E2,4E1,1.21E2,1.85E2,1.6E2,6.7E1,1.2E2,7.8E1,1.94E2,1.96E2,5.8E1,7.6E1,6.4E1,5.3E1,5.9E1],"tree_param":{"num_deleted":"0","num_feature":"36","num_nodes":"75","size_leaf_vector":"1"}},{"base_weights":[-1.870657E-3,-1.569499E0,6.281778E0,-1.3259938E0,-2.3036013E0,6.057677E0,6.99512E0,-1.6533556E0,-8.171802E-1,-2.5820756E0,-1.7455186E0,5.5636544E0,6.3321095E0,1.9354436E0,2.2010841E0,-2.1376154E0,-1.3829347E0,-1.2011578E0,-4.8635584E-1,-2.9830894E0,-2.2337441E0,-2.1887047E0,-1.4349688E0,5.1143413E0,5.895246E0,6.022201E0,6.780826E0,-2.3678632E0,-1.7219514E0,-1.1257405E0,-1.854132E0,-1.4702804E0,-9.2522496E-1,-6.7609715E-1,8.613541E-2,-3.1717544E0,-2.5141442E0,-2.3585756E0,-1.3959786E0,-2.3653643E0,-1.764748E0,-1.8654159E0,-1.2762592E0,4.6180086E0,1.616665E0,3.5660478E-1,5.9087768E0,6.1953154E0,1.6645638E0,5.887944E0,2.1021693E0,-7.543388E-1,-5.3770775E-1,-5.9810543E-1,-3.785283E-1,-4.2218903E-1,-2.5812614E-1,-7.1088636E-1,-4.9161592E-1,-5.6301874E-1,-3.8026735E-1,-2.1235926E-1,-3.956528E-1,-1.3901009E-1,-3.5124767E-1,-4.669275E-2,1.6049045E-1,-1.0446231E0,-8.6078364E-1,-5.880599E-1,-8.372701E-1,-8.1197387E-1,-6.3165855E-1,-3.4511143E-1,-7.7199286E-1,-7.649171E-1,-5.537273E-1,-3.3036247E-1,-6.7543834E-1,-4.007452E-1,-6.4477754E-1,-1.8376033E-1,-4.119294E-1,6.6982186E-1,1.4045835E0,4.783685E-1,1.7757832E0,1.6257389E0,1.9029245E0,4.830085E-1,1.7776562E0],"categories":[],"categories_nodes":[],"categories_segments":[],"categories_sizes":[],"default_left":[0,0,0,0,0,0,0,0,0,0,0,0,0,0,0,0,0,0,0,0,0,0,0,0,0,0,0,0,0,0,0,0,0,0,0,0,0,0,0,0,0,0,0,0,0,0,0,0,0,0,0,0,0,0,0,0,0,0,0,0,0,0,0,0,0,0,0,0,0,0,0,0,0,0,0,0,0,0,0,0,0,0,0,0,0,0,0,0,0,0,0],"id":2,"left_children":[1,3,5,7,9,11,13,15,17,19,21,23,25,-1,-1,27,29,31,33,35,37,39,41,43,45,47,49,51,53,55,57,59,61,63,65,67,69,71,73,75,77,79,81,83,-1,-1,85,87,-1,89,-1,-1,-1,-1,-1,-1,-1,-1,-1,-1,-1,-1,-1,-1,-1,-1,-1,-1,-1,-1,-1,-1,-1,-1,-1,-1,-1,-1,-1,-1,-1,-1,-1,-1,-1,-1,-1,-1,-1,-1,-1],"loss_changes":[8.243822E4,1.1942637E3,2.2475E2,8.3681055E2,2.5456445E2,1.3817188E2,2.5699219E1,3.9789355E2,2.4991736E2,1.4838818E2,7.3657715E1,3.9129883E1,7.25E1,0E0,0E0,1.007207E2,2.3629224E2,6.636438E1,1.1530963E2,3.7412598E1,5.924585E1,1.2901978E1,2.0231812E1,3.0478516E0,9.59668E0,5.8847656E0,2.4441406E1,5.471997E1,4.6753784E1,9.4035034E1,7.3069336E1,3.5523438E1,3.782376E1,8.333667E1,2.8840487E1,2.3987793E1,1.7832031E1,4.0005127E1,2.0172607E1,1.0429382E1,2.0450363E1,1.0207062E1,1.4906158E1,1.7468262E0,0E0,0E0,2.3398438E0,5.883789E0,0E0,2.0334473E0,0E0,0E0,0E0,0E0,0E0,0E0,0E0,0E0,0E0,0E0,0E0,0E0,0E0,0E0,0E0,0E0,0E0,0E0,0E0,0E0,0E0,0E0,0E0,0E0,0E0,0E0,0E0,0E0,0E0,0E0,0E0,0E0,0E0,0E0,0E0,0E0,0E0,0E0,0E0,0E0,0E0],"parents":[2147483647,0,0,1,1,2,2,3,3,4,4,5,5,6,6,7,7,8,8,9,9,10,10,11,11,12,12,15,15,16,16,17,17,18,18,19,19,20,20,21,21,22,22,23,23,24,24,25,25,26,26,27,27,28,28,29,29,30,30,31,31,32,32,33,33,34,34,35,35,36,36,37,37,38,38,39,39,40,40,41,41,42,42,43,43,46,46,47,47,49,49],"right_children":[2,4,6,8,10,12,14,16,18,20,22,24,26,-1,-1,28,30,32,34,36,38,40,42,44,46,48,50,52,54,56,58,60,62,64,66,68,70,72,74,76,78,80,82,84,-1,-1,86,88,-1,90,-1,-1,-1,-1,-1,-1,-1,-1,-1,-1,-1,-1,-1,-1,-1,-1,-1,-1,-1,-1,-1,-1,-1,-1,-1,-1,-1,-1,-1,-1,-1,-1,-1,-1,-1,-1,-1,-1,-1,-1,-1],"split_conditions":[1E0,1E0,2.7781E2,2.3676E2,2.5773E2,1.11918E3,3.395E1,1.15912E3,1.49629E3,1.44019E3,1.28572E3,3.717E1,4.46E1,1.9354436E0,2.2010841E0,1E0,1E0,2.9648E2,5.327E1,5.156E1,5.83E1,4.915E1,7.2E1,1.4915E2,6.134E1,1.327E1,1.0799E2,5.574E1,1.6881E2,3.975E1,1.0925E2,3.036E1,1E0,1E0,1E0,1.5538E2,7.45E0,1.381E2,7.75E0,1.45E2,8.41E0,7.63E0,2.94E0,2.9E1,1.616665E0,3.5660478E-1,4.82E0,5.35E0,1.6645638E0,4E1,2.1021693E0,-7.543388E-1,-5.3770775E-1,-5.9810543E-1,-3.785283E-1,-4.2218903E-1,-2.5812614E-1,-7.1088636E-1,-4.9161592E-1,-5.6301874E-1,-3.8026735E-1,-2.1235926E-1,-3.956528E-1,-1.3901009E-1,-3.5124767E-1,-4.669275E-2,1.6049045E-1,-1.0446231E0,-8.6078364E-1,-5.880599E-1,-8.372701E-1,-8.1197387E-1,-6.3165855E-1,-3.4511143E-1,-7.7199286E-1,-7.649171E-1,-5.537273E-1,-3.3036247E-1,-6.7543834E-1,-4.007452E-1,-6.4477754E-1,-1.8376033E-1,-4.119294E-1,6.6982186E-1,1.4045835E0,4.783685E-1,1.7757832E0,1.6257389E0,1.9029245E0,4.830085E-1,1.7776562E0],"split_indices":[29,27,13,13,13,9,5,9,9,9,9,5,5,0,0,28,31,13,5,5,5,5,1,13,13,11,13,5,13,5,13,5,31,31,28,13,11,13,4,1,11,11,11,3,0,0,4,4,0,0,0,0,0,0,0,0,0,0,0,0,0,0,0,0,0,0,0,0,0,0,0,0,0,0,0,0,0,0,0,0,0,0,0,0,0,0,0,0,0,0,0],"split_type":[0,0,0,0,0,0,0,0,0,0,0,0,0,0,0,0,0,0,0,0,0,0,0,0,0,0,0,0,0,0,0,0,0,0,0,0,0,0,0,0,0,0,0,0,0,0,0,0,0,0,0,0,0,0,0,0,0,0,0,0,0,0,0,0,0,0,0,0,0,0,0,0,0,0,0,0,0,0,0,0,0,0,0,0,0,0,0,0,0,0,0],"sum_hessian":[8.367E3,6.697E3,1.67E3,5.031E3,1.666E3,1.278E3,3.92E2,3.06E3,1.971E3,1.109E3,5.57E2,4.64E2,8.14E2,1.59E2,2.33E2,1.094E3,1.966E3,9.11E2,1.06E3,5.12E2,5.97E2,2.27E2,3.3E2,2.04E2,2.6E2,4.9E2,3.24E2,7.01E2,3.93E2,1.274E3,6.92E2,4.59E2,4.52E2,7.96E2,2.64E2,3.61E2,1.51E2,5.18E2,7.9E1,1.57E2,7E1,8.6E1,2.44E2,7.9E1,1.25E2,1E0,2.59E2,3.5E2,1.4E2,7.1E1,2.53E2,5.56E2,1.45E2,2.45E2,1.48E2,6.16E2,6.58E2,2.01E2,4.91E2,1.5E2,3.09E2,2.93E2,1.59E2,5.58E2,2.38E2,1.72E2,9.2E1,1.73E2,1.88E2,5.3E1,9.8E1,2.14E2,3.04E2,6.7E1,1.2E1,1.13E2,4.4E1,3.1E1,3.9E1,3.2E1,5.4E1,3.2E1,2.12E2,3E0,7.6E1,1E0,2.58E2,6.2E1,2.88E2,1E0,7E1],"tree_param":{"num_deleted":"0","num_feature":"36","num_nodes":"91","size_leaf_vector":"1"}},{"base_weights":[-8.2445436E-4,-1.1010284E0,4.4092097E0,-1.525594E0,-8.7569326E-1,4.18038E0,4.8926105E0,-1.6928886E0,-1.0285208E0,-6.97252E-1,-1.4126679E0,3.6557474E0,4.3499713E0,4.246908E0,5.099858E0,-1.9295254E0,-1.3193268E0,-1.4214203E0,-7.7861315E-1,-8.4790635E-1,-1.6631366E-1,-1.6168365E0,-9.9875146E-1,3.7968962E0,3.1090164E0,3.6370711E0,4.48885E0,2.973012E0,4.369731E0,4.8614583E0,1.675655E0,-2.4775648E0,-1.7895938E0,-1.1642133E0,-1.7851264E0,-1.8676343E0,-1.1360158E0,-6.743923E-1,-1.3114498E0,-7.032268E-1,-1.3520358E0,-3.7609363E-1,2.2428249E-1,-1.3374652E0,-1.8226552E0,-1.5751677E0,-8.653554E-1,6.139928E-1,3.8277931E0,1.91181E-1,3.138135E0,3.9297168E0,3.1018E0,4.567724E0,3.6990812E0,2.4326392E-1,9.2085904E-1,4.476407E0,3.234677E0,6.0611266E-1,4.874921E0,-9.7740644E-1,-7.010555E-1,-4.6081394E-1,-6.297893E-1,-3.1703243E-1,-5.949819E-1,-5.802578E-1,-3.566894E-1,-5.9201396E-1,-3.1268308E-1,-2.2838888E-1,-4.687312E-1,-3.0937213E-1,-1.5217635E-1,-4.1568315E-1,1.0836911E-2,-3.3066988E-1,-1.5701409E-1,-4.820301E-1,-3.1520793E-1,-2.1732926E-1,-2.816241E-2,2.407744E-2,3.381856E-1,-5.291341E-1,-3.3413348E-1,-6.212811E-1,-4.3270177E-1,4.1756775E-2,-4.8097554E-1,-3.552357E-1,-1.708955E-1,9.8137265E-1,1.1899531E0,9.4848835E-1,2.5223723E-1,1.0308105E0,1.3236344E0,6.4885277E-1,1.0006117E0,1.1825776E0,1.4137007E0,2.154502E-1,1.1195625E0,3.917639E-1,1.3481503E0,2.8526402E-1,1.0011628E0,1.3576872E0,1.539868E0],"categories":[],"categories_nodes":[],"categories_segments":[],"categories_sizes":[],"default_left":[0,0,0,0,0,0,0,0,0,0,0,0,0,0,0,0,0,0,0,0,0,0,0,0,0,0,0,0,0,0,0,0,0,0,0,0,0,0,0,0,0,0,0,0,0,0,0,0,0,0,0,0,0,0,0,0,0,0,0,0,0,0,0,0,0,0,0,0,0,0,0,0,0,0,0,0,0,0,0,0,0,0,0,0,0,0,0,0,0,0,0,0,0,0,0,0,0,0,0,0,0,0,0,0,0,0,0,0,0,0,0],"id":3,"left_children":[1,3,5,7,9,11,13,15,17,19,21,23,25,27,29,31,33,35,37,39,41,43,45,47,49,51,53,55,57,59,-1,61,63,65,67,69,71,73,75,77,79,81,83,85,87,89,91,-1,93,-1,95,97,99,101,103,-1,-1,105,107,-1,109,-1,-1,-1,-1,-1,-1,-1,-1,-1,-1,-1,-1,-1,-1,-1,-1,-1,-1,-1,-1,-1,-1,-1,-1,-1,-1,-1,-1,-1,-1,-1,-1,-1,-1,-1,-1,-1,-1,-1,-1,-1,-1,-1,-1,-1,-1,-1,-1,-1,-1],"loss_changes":[4.060587E4,6.394585E2,1.6438867E2,1.9126758E2,4.1850806E2,8.5615234E1,4.9399414E1,1.5082617E2,5.652997E1,2.6286E2,9.058423E1,1.0188721E1,6.852246E1,8.131348E0,1.88125E1,7.6855225E1,4.6763916E1,2.678711E1,1.9162842E1,1.8584155E2,5.973613E1,3.9479614E1,2.6548553E1,4.1713867E0,2.6065674E0,1.052417E1,2.7517578E1,6.4126587E-1,1.7138672E-1,6.308594E-1,0E0,1.5778442E1,6.3364014E1,4.2783447E1,1.2541138E1,5.536377E0,2.1340683E1,1.7608322E1,5.8463974E0,1.4236877E2,4.2065674E1,4.652968E1,3.3073402E1,2.7883606E1,3.6388306E1,3.4489288E0,2.7320587E1,0E0,3.777588E0,0E0,7.4194336E-1,6.2734375E0,5.067749E0,3.9706055E1,4.1627197E0,0E0,0E0,9.863281E-2,1.0498047E-1,0E0,1.2802734E0,0E0,0E0,0E0,0E0,0E0,0E0,0E0,0E0,0E0,0E0,0E0,0E0,0E0,0E0,0E0,0E0,0E0,0E0,0E0,0E0,0E0,0E0,0E0,0E0,0E0,0E0,0E0,0E0,0E0,0E0,0E0,0E0,0E0,0E0,0E0,0E0,0E0,0E0,0E0,0E0,0E0,0E0,0E0,0E0,0E0,0E0,0E0,0E0,0E0,0E0],"parents":[2147483647,0,0,1,1,2,2,3,3,4,4,5,5,6,6,7,7,8,8,9,9,10,10,11,11,12,12,13,13,14,14,15,15,16,16,17,17,18,18,19,19,20,20,21,21,22,22,23,23,24,24,25,25,26,26,27,27,28,28,29,29,31,31,32,32,33,33,34,34,35,35,36,36,37,37,38,38,39,39,40,40,41,41,42,42,43,43,44,44,45,45,46,46,48,48,50,50,51,51,52,52,53,53,54,54,57,57,58,58,60,60],"right_children":[2,4,6,8,10,12,14,16,18,20,22,24,26,28,30,32,34,36,38,40,42,44,46,48,50,52,54,56,58,60,-1,62,64,66,68,70,72,74,76,78,80,82,84,86,88,90,92,-1,94,-1,96,98,100,102,104,-1,-1,106,108,-1,110,-1,-1,-1,-1,-1,-1,-1,-1,-1,-1,-1,-1,-1,-1,-1,-1,-1,-1,-1,-1,-1,-1,-1,-1,-1,-1,-1,-1,-1,-1,-1,-1,-1,-1,-1,-1,-1,-1,-1,-1,-1,-1,-1,-1,-1,-1,-1,-1,-1,-1],"split_conditions":[1E0,1.6087E2,1.99168E3,1E0,1E0,1.2897E2,1.2897E2,1.78058E3,1.15912E3,2.25064E3,1.97271E3,1.506E1,2.311E1,2.129E1,4.818E1,5.49E0,1.34E1,3.54E1,7.59E0,7.46E0,1E0,8.81E0,6E1,3.3E1,4.84E0,7.08E0,7.82E0,1.07E0,7.72E0,4.86E0,1.675655E0,2.189E1,7E0,7.85E0,1.35E0,1.57E2,1.038E1,5.74E0,1.68E2,5.65E0,4.046E1,3.806E1,3.2761E2,3.181E1,2.7353E2,6.5E-1,5.7E1,6.139928E-1,5.7E1,1.91181E-1,9.741E3,6.15E0,5.4655E2,5.35E0,3.108E2,2.4326392E-1,9.2085904E-1,3.1E1,1.76E0,6.0611266E-1,2.37913E3,-9.7740644E-1,-7.010555E-1,-4.6081394E-1,-6.297893E-1,-3.1703243E-1,-5.949819E-1,-5.802578E-1,-3.566894E-1,-5.9201396E-1,-3.1268308E-1,-2.2838888E-1,-4.687312E-1,-3.0937213E-1,-1.5217635E-1,-4.1568315E-1,1.0836911E-2,-3.3066988E-1,-1.5701409E-1,-4.820301E-1,-3.1520793E-1,-2.1732926E-1,-2.816241E-2,2.407744E-2,3.381856E-1,-5.291341E-1,-3.3413348E-1,-6.212811E-1,-4.3270177E-1,4.1756775E-2,-4.8097554E-1,-3.552357E-1,-1.708955E-1,9.8137265E-1,1.1899531E0,9.4848835E-1,2.5223723E-1,1.0308105E0,1.3236344E0,6.4885277E-1,1.0006117E0,1.1825776E0,1.4137007E0,2.154502E-1,1.1195625E0,3.917639E-1,1.3481503E0,2.8526402E-1,1.0011628E0,1.3576872E0,1.539868E0],"split_indices":[29,13,9,28,27,13,13,9,9,9,9,11,5,5,5,4,11,5,4,4,28,11,1,1,4,4,4,11,4,4,0,5,4,4,6,1,11,4,1,4,5,5,13,5,13,14,2,0,3,0,0,4,9,4,9,0,0,1,11,0,9,0,0,0,0,0,0,0,0,0,0,0,0,0,0,0,0,0,0,0,0,0,0,0,0,0,0,0,0,0,0,0,0,0,0,0,0,0,0,0,0,0,0,0,0,0,0,0,0,0,0],"split_type":[0,0,0,0,0,0,0,0,0,0,0,0,0,0,0,0,0,0,0,0,0,0,0,0,0,0,0,0,0,0,0,0,0,0,0,0,0,0,0,0,0,0,0,0,0,0,0,0,0,0,0,0,0,0,0,0,0,0,0,0,0,0,0,0,0,0,0,0,0,0,0,0,0,0,0,0,0,0,0,0,0,0,0,0,0,0,0,0,0,0,0,0,0,0,0,0,0,0,0,0,0,0,0,0,0,0,0,0,0,0,0],"sum_hessian":[8.367E3,6.697E3,1.67E3,2.32E3,4.377E3,1.14E3,5.3E2,1.734E3,5.86E2,3.287E3,1.09E3,2.84E2,8.56E2,1.34E2,3.96E2,1.059E3,6.75E2,2.26E2,3.6E2,2.56E3,7.27E2,7.28E2,3.62E2,2.21E2,6.3E1,1.44E2,7.12E2,1.4E1,1.2E2,2.73E2,1.23E2,2.12E2,8.47E2,5.09E2,1.66E2,8.6E1,1.4E2,3.03E2,5.7E1,1.991E3,5.69E2,4.73E2,2.54E2,3.12E2,4.16E2,6.6E1,2.96E2,5E0,2.16E2,1E0,6.2E1,8.9E1,5.5E1,6.43E2,6.9E1,1E0,1.3E1,1.07E2,1.3E1,2E0,2.71E2,2.9E1,1.83E2,4.69E2,3.78E2,4.52E2,5.7E1,1.31E2,3.5E1,7.5E1,1.1E1,7.6E1,6.4E1,9.5E1,2.08E2,5.4E1,3E0,6.17E2,1.374E3,3.06E2,2.63E2,2.11E2,2.62E2,2.2E2,3.4E1,1.05E2,2.07E2,2.49E2,1.67E2,1E0,6.5E1,1.41E2,1.55E2,4.8E1,1.68E2,6.1E1,1E0,4.8E1,4.1E1,1.3E1,4.2E1,1.26E2,5.17E2,1E0,6.8E1,1E0,1.06E2,1E0,1.2E1,1.23E2,1.48E2],"tree_param":{"num_deleted":"0","num_feature":"36","num_nodes":"111","size_leaf_vector":"1"}},{"base_weights":[6.591384E-4,-7.7238274E-1,3.099303E0,-9.159303E-1,-3.8568395E-1,2.9690073E0,3.6257513E0,-1.3026426E0,-7.835529E-1,-5.3215986E-1,7.6027274E-2,2.496214E0,3.0949008E0,1.2682492E0,3.6584196E0,-1.436469E0,-9.3820053E-1,-1.0840384E0,-6.0912436E-1,-9.909289E-1,-4.0247664E-1,-2.192232E-1,5.004375E-1,2.1324205E0,2.6994927E0,2.6445627E0,3.1916912E0,-8.13961E-3,4.5982555E-1,3.2806644E0,3.8784246E0,-1.6255395E0,-1.0628718E0,-1.1921107E0,-7.180132E-1,-1.2218158E0,-6.5343386E-1,-4.8775908E-1,-9.88441E-1,-1.4296788E0,-7.544482E-1,-2.5938904E-1,-6.887266E-1,-5.8176976E-1,3.575528E-2,2.5428033E-1,1.0854881E0,8.0337226E-1,2.2027235E0,3.069818E0,2.420756E0,2.2392812E0,2.8672154E0,3.4457889E0,2.958873E0,2.3750565E0,3.3918083E0,1.2296511E0,3.3288298E0,-5.684698E-1,-4.1098893E-1,-3.7622315E-1,-1.9757368E-1,-4.163692E-1,-1.999954E-1,-2.941893E-1,-1.2312065E-1,-2.4147801E-1,-4.1178977E-1,-2.9641905E-1,-1.1887499E-1,-2.2676341E-1,-9.507297E-2,-4.2616317E-1,-2.6191896E-1,-5.159218E-1,-2.4778776E-1,-2.6789176E-1,-5.9652854E-2,-1.458156E-2,-1.4189668E-1,-2.5572658E-1,-1.11883044E-1,-1.9666705E-1,2.3087135E-1,-1.1109401E-2,3.6133674E-1,-4.3321952E-2,2.0037483E-1,1.7541802E-1,4.0443826E-1,3.2782233E-1,1.5990067E-2,6.240108E-1,9.718147E-1,9.3657607E-1,2.3882829E-1,4.6318832E-1,7.636719E-1,2.225547E-1,6.8785775E-1,8.275137E-2,8.659535E-1,8.725522E-1,1.0825546E0,7.39232E-1,9.1657436E-1,7.3556674E-1,1.7186052E-1,1.0769922E0,8.1640583E-1,7.0946306E-1,1.0758475E0],"categories":[],"categories_nodes":[],"categories_segments":[],"categories_sizes":[],"default_left":[0,0,0,0,0,0,0,0,0,0,0,0,0,0,0,0,0,0,0,0,0,0,0,0,0,0,0,0,0,0,0,0,0,0,0,0,0,0,0,0,0,0,0,0,0,0,0,0,0,0,0,0,0,0,0,0,0,0,0,0,0,0,0,0,0,0,0,0,0,0,0,0,0,0,0,0,0,0,0,0,0,0,0,0,0,0,0,0,0,0,0,0,0,0,0,0,0,0,0,0,0,0,0,0,0,0,0,0,0,0,0,0,0],"id":4,"left_children":[1,3,5,7,9,11,13,15,17,19,21,23,25,27,29,31,33,35,37,39,41,43,45,47,49,51,53,-1,-1,55,57,59,61,63,65,67,69,71,73,75,77,79,81,83,85,87,89,91,93,95,97,99,101,103,105,107,109,-1,111,-1,-1,-1,-1,-1,-1,-1,-1,-1,-1,-1,-1,-1,-1,-1,-1,-1,-1,-1,-1,-1,-1,-1,-1,-1,-1,-1,-1,-1,-1,-1,-1,-1,-1,-1,-1,-1,-1,-1,-1,-1,-1,-1,-1,-1,-1,-1,-1,-1,-1,-1,-1,-1,-1],"loss_changes":[2.0046947E4,3.714502E2,1.0385449E2,2.4900049E2,1.2278815E2,7.233008E1,2.0544922E1,5.9324463E1,1.9017651E2,8.158481E1,5.4994316E1,1.5541626E1,3.767578E1,2.0973778E0,1.4036621E1,6.2410034E1,1.7984955E1,7.846338E1,1.05676575E2,3.0359436E1,4.3893036E1,2.396317E1,2.5646576E1,8.321503E0,1.1252075E1,1.0995239E1,4.1036133E1,0E0,0E0,4.525757E0,1.0341064E1,3.8777954E1,2.2983398E1,1.50208435E1,1.438105E1,6.246045E1,2.766449E1,7.987848E1,2.6578918E1,1.696666E1,1.5138443E1,3.234884E1,1.8187897E1,1.1173622E1,1.3059662E1,2.1205074E1,6.182255E0,1.4610887E0,6.234894E0,6.281128E0,7.889099E0,4.1557617E0,5.2542114E0,2.5175781E1,1.4358154E1,9.4931793E-1,4.7122803E0,0E0,6.8983765E0,0E0,0E0,0E0,0E0,0E0,0E0,0E0,0E0,0E0,0E0,0E0,0E0,0E0,0E0,0E0,0E0,0E0,0E0,0E0,0E0,0E0,0E0,0E0,0E0,0E0,0E0,0E0,0E0,0E0,0E0,0E0,0E0,0E0,0E0,0E0,0E0,0E0,0E0,0E0,0E0,0E0,0E0,0E0,0E0,0E0,0E0,0E0,0E0,0E0,0E0,0E0,0E0,0E0,0E0],"parents":[2147483647,0,0,1,1,2,2,3,3,4,4,5,5,6,6,7,7,8,8,9,9,10,10,11,11,12,12,13,13,14,14,15,15,16,16,17,17,18,18,19,19,20,20,21,21,22,22,23,23,24,24,25,25,26,26,29,29,30,30,31,31,32,32,33,33,34,34,35,35,36,36,37,37,38,38,39,39,40,40,41,41,42,42,43,43,44,44,45,45,46,46,47,47,48,48,49,49,50,50,51,51,52,52,53,53,54,54,55,55,56,56,58,58],"right_children":[2,4,6,8,10,12,14,16,18,20,22,24,26,28,30,32,34,36,38,40,42,44,46,48,50,52,54,-1,-1,56,58,60,62,64,66,68,70,72,74,76,78,80,82,84,86,88,90,92,94,96,98,100,102,104,106,108,110,-1,112,-1,-1,-1,-1,-1,-1,-1,-1,-1,-1,-1,-1,-1,-1,-1,-1,-1,-1,-1,-1,-1,-1,-1,-1,-1,-1,-1,-1,-1,-1,-1,-1,-1,-1,-1,-1,-1,-1,-1,-1,-1,-1,-1,-1,-1,-1,-1,-1,-1,-1,-1,-1,-1,-1],"split_conditions":[1E0,2.7353E2,2.8698E2,9.4072E2,1E0,8.0925E2,3.045E1,1E0,3.377E1,8.5911E2,1.21E2,7.2E1,5.37E0,5.4E0,1.44983E3,1E0,8.2E1,1E0,1E0,8.6E1,1E0,6.9E1,5.178E1,1.738E1,7.7E0,7.2E1,9.28E0,-8.13961E-3,4.5982555E-1,3.9E1,1.25E1,1.01E2,1.05E2,7.6E1,6.2916E2,5.73E0,2.273E1,9.2E1,5.56E0,3.2642E2,5.551E1,9.08E0,1.06E2,2.073E3,3.4654E2,1.71847E3,2.9738E2,4.6E1,6.162E1,3.988E1,1.0055E2,2.02E0,8.282E2,1.1351E2,2.311E1,9.706E3,7.48E0,1.2296511E0,3.025E2,-5.684698E-1,-4.1098893E-1,-3.7622315E-1,-1.9757368E-1,-4.163692E-1,-1.999954E-1,-2.941893E-1,-1.2312065E-1,-2.4147801E-1,-4.1178977E-1,-2.9641905E-1,-1.1887499E-1,-2.2676341E-1,-9.507297E-2,-4.2616317E-1,-2.6191896E-1,-5.159218E-1,-2.4778776E-1,-2.6789176E-1,-5.9652854E-2,-1.458156E-2,-1.4189668E-1,-2.5572658E-1,-1.11883044E-1,-1.9666705E-1,2.3087135E-1,-1.1109401E-2,3.6133674E-1,-4.3321952E-2,2.0037483E-1,1.7541802E-1,4.0443826E-1,3.2782233E-1,1.5990067E-2,6.240108E-1,9.718147E-1,9.3657607E-1,2.3882829E-1,4.6318832E-1,7.636719E-1,2.225547E-1,6.8785775E-1,8.275137E-2,8.659535E-1,8.725522E-1,1.0825546E0,7.39232E-1,9.1657436E-1,7.3556674E-1,1.7186052E-1,1.0769922E0,8.1640583E-1,7.0946306E-1,1.0758475E0],"split_indices":[29,13,13,9,28,9,8,28,5,9,1,3,4,4,9,30,3,28,27,1,27,3,5,5,11,3,11,0,0,3,11,1,3,2,9,11,5,1,4,13,5,11,3,12,13,9,13,3,5,7,13,11,9,13,5,0,4,0,13,0,0,0,0,0,0,0,0,0,0,0,0,0,0,0,0,0,0,0,0,0,0,0,0,0,0,0,0,0,0,0,0,0,0,0,0,0,0,0,0,0,0,0,0,0,0,0,0,0,0,0,0,0,0],"split_type":[0,0,0,0,0,0,0,0,0,0,0,0,0,0,0,0,0,0,0,0,0,0,0,0,0,0,0,0,0,0,0,0,0,0,0,0,0,0,0,0,0,0,0,0,0,0,0,0,0,0,0,0,0,0,0,0,0,0,0,0,0,0,0,0,0,0,0,0,0,0,0,0,0,0,0,0,0,0,0,0,0,0,0,0,0,0,0,0,0,0,0,0,0,0,0,0,0,0,0,0,0,0,0,0,0,0,0,0,0,0,0,0,0],"sum_hessian":[8.367E3,6.697E3,1.67E3,4.883E3,1.814E3,1.344E3,3.26E2,1.243E3,3.64E3,1.377E3,4.37E2,2.87E2,1.057E3,5E0,3.21E2,9.07E2,3.36E2,1.335E3,2.305E3,3.02E2,1.075E3,2.58E2,1.79E2,1.07E2,1.8E2,1.92E2,8.65E2,1E0,4E0,1.24E2,1.97E2,6E2,3.07E2,1.54E2,1.82E2,1.01E3,3.25E2,1.748E3,5.57E2,1.04E2,1.98E2,7.18E2,3.57E2,1.06E2,1.52E2,1.27E2,5.2E1,6E0,1.01E2,7.3E1,1.07E2,7.2E1,1.2E2,4.07E2,4.58E2,1.6E1,1.08E2,1.36E2,6.1E1,2.89E2,3.11E2,2.07E2,1E2,1.11E2,4.3E1,9.7E1,8.5E1,2.7E2,7.4E2,1.4E2,1.85E2,6.79E2,1.069E3,1.15E2,4.42E2,6.9E1,3.5E1,1.58E2,4E1,3.62E2,3.56E2,2.34E2,1.23E2,1.01E2,5E0,1.44E2,8E0,6.5E1,6.2E1,1.9E1,3.3E1,4E0,2E0,9.3E1,8E0,7.1E1,2E0,1.5E1,9.2E1,3E0,6.9E1,1E0,1.19E2,9.9E1,3.08E2,7.9E1,3.79E2,1.5E1,1E0,8E1,2.8E1,1.5E1,4.6E1],"tree_param":{"num_deleted":"0","num_feature":"36","num_nodes":"113","size_leaf_vector":"1"}},{"base_weights":[1.7663911E-3,-5.414382E-1,2.1791348E0,-8.577735E-1,-4.1663477E-1,2.0444958E0,2.4691384E0,-9.6370834E-1,-4.4410956E-1,-5.696859E-1,-1.9264685E-1,1.7242213E0,2.1558983E0,2.3064656E0,2.8357444E0,-1.2171403E0,-7.856774E-1,-5.648919E-1,1.4299504E-1,-4.243042E-1,-8.633879E-1,-7.2633095E-2,-5.4960704E-1,1.5213464E0,1.9865341E0,1.8637688E0,2.3046486E0,2.044507E0,2.47459E0,2.028442E0,3.0182676E0,-1.5902342E0,-1.0871923E0,-1.0791594E0,-6.271884E-1,-3.846642E-1,-1.0181658E0,4.6325344E-1,-3.196239E-1,-3.0966815E-1,-7.4718773E-1,-1.1220329E0,-6.776798E-1,6.264847E-2,-3.6838487E-1,-7.614989E-1,-3.09773E-1,1.6980984E0,1.157216E0,1.8099456E0,2.5800707E0,1.2563765E0,1.9287703E0,2.1889596E0,2.6909735E0,1.481225E0,2.1297488E0,1.997799E0,2.6616454E0,8.443852E-2,2.0757167E0,3.2097416E0,2.2671402E0,-4.038196E-1,-5.705328E-1,-2.532794E-1,-3.8941503E-1,-2.5375435E-1,-4.0802938E-1,-3.4739485E-1,-1.6118482E-1,-8.236433E-2,-2.767679E-1,-3.849339E-1,-1.6087532E-1,-1.3397741E-1,2.0093517E-1,7.1511626E-2,-1.9285937E-1,-1.9436505E-1,-3.993838E-2,-2.7114072E-1,-1.07255615E-1,-3.8246897E-1,-2.0024034E-1,-1.8704745E-1,-5.385091E-1,-6.268421E-2,6.2495228E-2,-2.2594774E-1,-5.0916936E-2,-3.1390738E-1,-1.8136086E-1,-5.7861995E-2,-2.502038E-1,5.2112645E-1,5.4558136E-2,3.8463947E-1,1.4526507E-1,4.7848806E-1,6.579018E-1,1.9313623E-1,8.127666E-1,7.846842E-2,4.312881E-1,6.11854E-1,4.7330132E-1,6.271485E-1,7.9191834E-1,8.4146464E-1,4.1822663E-1,1.577818E-1,5.15209E-1,1.4441906E-1,6.537118E-1,-7.703791E-2,6.109308E-1,6.341325E-1,8.46456E-1,7.409443E-1,4.6556598E-1,9.6913105E-1,1.8034516E-1,5.6060094E-1,9.75757E-1],"categories":[],"categories_nodes":[],"categories_segments":[],"categories_sizes":[],"default_left":[0,0,0,0,0,0,0,0,0,0,0,0,0,0,0,0,0,0,0,0,0,0,0,0,0,0,0,0,0,0,0,0,0,0,0,0,0,0,0,0,0,0,0,0,0,0,0,0,0,0,0,0,0,0,0,0,0,0,0,0,0,0,0,0,0,0,0,0,0,0,0,0,0,0,0,0,0,0,0,0,0,0,0,0,0,0,0,0,0,0,0,0,0,0,0,0,0,0,0,0,0,0,0,0,0,0,0,0,0,0,0,0,0,0,0,0,0,0,0,0,0,0,0,0,0],"id":5,"left_children":[1,3,5,7,9,11,13,15,17,19,21,23,25,27,29,31,33,35,37,39,41,43,45,47,49,51,53,55,57,59,61,63,65,67,69,71,73,75,77,79,81,83,85,87,89,91,93,95,97,99,101,103,105,107,109,111,113,115,117,-1,119,121,123,-1,-1,-1,-1,-1,-1,-1,-1,-1,-1,-1,-1,-1,-1,-1,-1,-1,-1,-1,-1,-1,-1,-1,-1,-1,-1,-1,-1,-1,-1,-1,-1,-1,-1,-1,-1,-1,-1,-1,-1,-1,-1,-1,-1,-1,-1,-1,-1,-1,-1,-1,-1,-1,-1,-1,-1,-1,-1,-1,-1,-1,-1],"loss_changes":[9.898486E3,2.6407788E2,6.0196777E1,8.25697E1,1.6461328E2,3.720703E1,2.4768799E1,6.703772E1,2.7594574E1,1.2149634E2,8.3584015E1,1.2996033E1,3.2510254E1,1.1192261E1,1.7011719E1,2.8330505E1,4.062732E1,2.5913338E1,1.0074625E1,7.050253E1,4.4582275E1,5.8517345E1,2.4716187E1,9.233734E0,8.746094E0,9.065918E0,1.9003906E1,4.0476685E0,1.4303589E1,2.0585785E0,1.08446045E1,9.458954E0,2.2620422E1,1.9168884E1,2.700856E1,1.3488335E1,1.09309845E1,7.815547E0,5.203516E0,8.422232E1,3.0190796E1,2.6457214E1,3.2302948E1,3.976486E1,3.495809E1,1.099263E1,1.40569E1,6.482605E0,4.4232483E0,4.902191E0,5.0078125E0,5.213604E0,6.930359E0,1.3744873E1,1.4407715E1,4.285099E0,9.350769E0,6.2721863E0,7.6124268E0,0E0,2.5667877E0,3.3485718E0,5.308853E0,0E0,0E0,0E0,0E0,0E0,0E0,0E0,0E0,0E0,0E0,0E0,0E0,0E0,0E0,0E0,0E0,0E0,0E0,0E0,0E0,0E0,0E0,0E0,0E0,0E0,0E0,0E0,0E0,0E0,0E0,0E0,0E0,0E0,0E0,0E0,0E0,0E0,0E0,0E0,0E0,0E0,0E0,0E0,0E0,0E0,0E0,0E0,0E0,0E0,0E0,0E0,0E0,0E0,0E0,0E0,0E0,0E0,0E0,0E0,0E0,0E0,0E0],"parents":[2147483647,0,0,1,1,2,2,3,3,4,4,5,5,6,6,7,7,8,8,9,9,10,10,11,11,12,12,13,13,14,14,15,15,16,16,17,17,18,18,19,19,20,20,21,21,22,22,23,23,24,24,25,25,26,26,27,27,28,28,29,29,30,30,31,31,32,32,33,33,34,34,35,35,36,36,37,37,38,38,39,39,40,40,41,41,42,42,43,43,44,44,45,45,46,46,47,47,48,48,49,49,50,50,51,51,52,52,53,53,54,54,55,55,56,56,57,57,58,58,60,60,61,61,62,62],"right_children":[2,4,6,8,10,12,14,16,18,20,22,24,26,28,30,32,34,36,38,40,42,44,46,48,50,52,54,56,58,60,62,64,66,68,70,72,74,76,78,80,82,84,86,88,90,92,94,96,98,100,102,104,106,108,110,112,114,116,118,-1,120,122,124,-1,-1,-1,-1,-1,-1,-1,-1,-1,-1,-1,-1,-1,-1,-1,-1,-1,-1,-1,-1,-1,-1,-1,-1,-1,-1,-1,-1,-1,-1,-1,-1,-1,-1,-1,-1,-1,-1,-1,-1,-1,-1,-1,-1,-1,-1,-1,-1,-1,-1,-1,-1,-1,-1,-1,-1,-1,-1,-1,-1,-1,-1],"split_conditions":[1E0,1.4289E2,2.0005E3,2.25064E3,1.2E2,2.808E1,4.818E1,7.1E1,1.54E2,1.208E1,1E0,1.21E2,7E1,1.7753E2,5.63E0,5.69E0,8.4E1,1E0,6.87E0,7.38E0,3.606E1,1E0,1.5762E3,7.09E0,8.3E1,8.609E1,1.42E2,4.4E1,3.9E1,4.26E0,1.389E1,1.181E1,6.82E0,1.089E1,5.28E0,7.61E0,6.7E1,5.49E0,3.3E1,5.69E0,4.954E1,2.8918E2,8.07E0,1.20564E3,3.256E1,2.129E1,7.54E0,2.791E1,1.55494E3,1.15E2,4.301E2,3.918E1,7.3E3,2.8698E2,7.89E0,6.05E0,1.788E1,1.551E1,2.21335E3,8.443852E-2,5.14E0,3.934E1,2.8144E2,-4.038196E-1,-5.705328E-1,-2.532794E-1,-3.8941503E-1,-2.5375435E-1,-4.0802938E-1,-3.4739485E-1,-1.6118482E-1,-8.236433E-2,-2.767679E-1,-3.849339E-1,-1.6087532E-1,-1.3397741E-1,2.0093517E-1,7.1511626E-2,-1.9285937E-1,-1.9436505E-1,-3.993838E-2,-2.7114072E-1,-1.07255615E-1,-3.8246897E-1,-2.0024034E-1,-1.8704745E-1,-5.385091E-1,-6.268421E-2,6.2495228E-2,-2.2594774E-1,-5.0916936E-2,-3.1390738E-1,-1.8136086E-1,-5.7861995E-2,-2.502038E-1,5.2112645E-1,5.4558136E-2,3.8463947E-1,1.4526507E-1,4.7848806E-1,6.579018E-1,1.9313623E-1,8.127666E-1,7.846842E-2,4.312881E-1,6.11854E-1,4.7330132E-1,6.271485E-1,7.9191834E-1,8.4146464E-1,4.1822663E-1,1.577818E-1,5.15209E-1,1.4441906E-1,6.537118E-1,-7.703791E-2,6.109308E-1,6.341325E-1,8.46456E-1,7.409443E-1,4.6556598E-1,9.6913105E-1,1.8034516E-1,5.6060094E-1,9.75757E-1],"split_indices":[29,13,9,9,1,5,5,3,1,11,27,1,3,13,4,4,1,27,4,4,5,31,9,4,2,13,1,3,2,10,11,11,4,11,4,4,2,4,2,4,5,13,4,9,5,7,4,5,9,3,9,8,0,13,4,4,5,5,9,0,4,7,13,0,0,0,0,0,0,0,0,0,0,0,0,0,0,0,0,0,0,0,0,0,0,0,0,0,0,0,0,0,0,0,0,0,0,0,0,0,0,0,0,0,0,0,0,0,0,0,0,0,0,0,0,0,0,0,0,0,0,0,0,0,0],"split_type":[0,0,0,0,0,0,0,0,0,0,0,0,0,0,0,0,0,0,0,0,0,0,0,0,0,0,0,0,0,0,0,0,0,0,0,0,0,0,0,0,0,0,0,0,0,0,0,0,0,0,0,0,0,0,0,0,0,0,0,0,0,0,0,0,0,0,0,0,0,0,0,0,0,0,0,0,0,0,0,0,0,0,0,0,0,0,0,0,0,0,0,0,0,0,0,0,0,0,0,0,0,0,0,0,0,0,0,0,0,0,0,0,0,0,0,0,0,0,0,0,0,0,0,0,0],"sum_hessian":[8.367E3,6.697E3,1.67E3,1.893E3,4.804E3,1.146E3,5.24E2,1.506E3,3.87E2,2.853E3,1.951E3,3E2,8.46E2,3.68E2,1.56E2,6.19E2,8.87E2,3.21E2,6.6E1,1.91E3,9.43E2,1.461E3,4.9E2,1.73E2,1.27E2,2.9E2,5.56E2,1.49E2,2.19E2,3.1E1,1.25E2,1.57E2,4.62E2,3.09E2,5.78E2,2.31E2,9E1,3.9E1,2.7E1,1.411E3,4.99E2,3.92E2,5.51E2,1.003E3,4.58E2,2.59E2,2.31E2,1.14E2,5.9E1,1.01E2,2.6E1,3E1,2.6E2,4.33E2,1.23E2,2.2E1,1.27E2,6.5E1,1.54E2,1E0,3E1,9.7E1,2.8E1,9.1E1,6.6E1,2.17E2,2.45E2,1.71E2,1.38E2,8.2E1,4.96E2,1.93E2,3.8E1,5.7E1,3.3E1,7E0,3.2E1,1E1,1.7E1,4.83E2,9.28E2,3.55E2,1.44E2,2.92E2,1E2,5.27E2,2.4E1,3.5E2,6.53E2,1.55E2,3.03E2,9E1,1.69E2,1.9E2,4.1E1,1.11E2,3E0,4.9E1,1E1,6.8E1,3.3E1,2E0,2.4E1,5E0,2.5E1,1.94E2,6.6E1,3.6E2,7.3E1,1.12E2,1.1E1,5E0,1.7E1,4E0,1.23E2,1E0,6.4E1,3.8E1,1.16E2,1.5E1,1.5E1,9.6E1,1E0,2.2E1,6E0],"tree_param":{"num_deleted":"0","num_feature":"36","num_nodes":"125","size_leaf_vector":"1"}},{"base_weights":[2.2206826E-3,-3.8001424E-1,1.5343615E0,-4.6430573E-1,-6.7501836E-2,1.456195E0,1.8511796E0,-7.132022E-1,-3.6677763E-1,-5.1456106E-1,6.3930666E-3,1.387251E0,1.8783394E0,1.3009981E0,1.916889E0,-8.157995E-1,-3.7340003E-1,-2.114648E-1,-5.4055077E-1,-2.1225186E-1,-8.332131E-1,1.459224E-1,-3.3653608E-1,1.4870464E0,1.1380893E0,2.2234402E0,1.5969101E0,1.4656059E0,1.7882283E-1,1.6455855E0,2.0832696E0,-9.5812863E-1,-5.3456765E-1,-6.328344E-1,-2.4150486E-1,-3.260313E-1,1.18682995E-1,-9.610781E-1,-4.6873528E-1,-4.0425178E-1,-1.4201409E-1,-1.0412427E0,-3.716131E-1,-2.1261822E-1,2.450694E-1,-5.716014E-1,-8.4480904E-2,1.2750933E0,1.7283208E0,1.2470925E0,8.1672686E-1,1.8216877E0,2.5198755E0,1.2953765E0,1.8966938E0,1.7493972E0,5.1445156E-1,-1.060814E-1,5.334377E-1,1.683296E0,1.7829943E-1,1.6709538E0,2.2080495E0,-2.560666E-1,-3.8003376E-1,-2.0071281E-1,-3.6831755E-2,-1.2136161E-1,-3.2723868E-1,-1.5883979E-1,-2.2930708E-2,-2.2169626E-1,-7.939453E-2,2.2912377E-2,2.9537576E-1,-4.180688E-1,-2.4293104E-1,-2.1774854E-1,-1.0767078E-1,2.1703323E-2,-1.4809822E-1,-3.499038E-1,-1.11197375E-1,1.040802E-1,-1.8767531E-1,1.5649823E-2,-1.3770649E-1,-7.157535E-2,9.916115E-2,-1.08207166E-1,-2.5717857E-1,-7.996973E-2,7.5367115E-2,4.1860116E-1,2.8527597E-1,4.1327712E-1,5.626616E-1,3.4754953E-1,5.319737E-1,1.976452E-1,4.182656E-1,5.996556E-1,2.2546579E-1,2.6034796E-1,7.858773E-1,-4.073906E-3,4.0323237E-1,6.356828E-1,3.473905E-1,5.7599664E-1,1.1213837E-1,2.1551524E-1,-3.9862443E-2,7.214413E-2,2.1184646E-1,5.484878E-1,3.615784E-1,-2.171631E-2,8.579732E-2,4.111994E-1,7.1475816E-1,1.309372E-1,6.695843E-1],"categories":[],"categories_nodes":[],"categories_segments":[],"categories_sizes":[],"default_left":[0,0,0,0,0,0,0,0,0,0,0,0,0,0,0,0,0,0,0,0,0,0,0,0,0,0,0,0,0,0,0,0,0,0,0,0,0,0,0,0,0,0,0,0,0,0,0,0,0,0,0,0,0,0,0,0,0,0,0,0,0,0,0,0,0,0,0,0,0,0,0,0,0,0,0,0,0,0,0,0,0,0,0,0,0,0,0,0,0,0,0,0,0,0,0,0,0,0,0,0,0,0,0,0,0,0,0,0,0,0,0,0,0,0,0,0,0,0,0,0,0,0,0],"id":6,"left_children":[1,3,5,7,9,11,13,15,17,19,21,23,25,27,29,31,33,35,37,39,41,43,45,47,49,51,53,55,57,59,61,63,65,67,69,71,73,75,77,-1,79,81,83,85,87,89,91,93,95,97,99,101,103,105,107,109,111,-1,113,115,117,119,121,-1,-1,-1,-1,-1,-1,-1,-1,-1,-1,-1,-1,-1,-1,-1,-1,-1,-1,-1,-1,-1,-1,-1,-1,-1,-1,-1,-1,-1,-1,-1,-1,-1,-1,-1,-1,-1,-1,-1,-1,-1,-1,-1,-1,-1,-1,-1,-1,-1,-1,-1,-1,-1,-1,-1,-1,-1,-1,-1,-1],"loss_changes":[4.9011997E3,1.7640814E2,3.868579E1,1.2778601E2,4.704569E1,3.653955E1,9.327759E0,5.14317E1,1.022287E2,1.92821E1,5.8568035E1,2.7151123E1,1.4513916E1,6.7572174E0,9.662231E0,4.5079163E1,1.1686638E1,7.583776E1,5.357794E1,8.181095E0,9.023659E0,3.0979061E1,2.0926014E1,3.9985962E1,1.0751373E1,5.056183E0,7.1249084E0,8.00769E0,1.3214663E0,6.0630493E0,5.3653564E0,2.3287659E1,2.1237686E1,1.1686596E1,1.093977E1,3.752292E1,1.886508E1,1.5885483E1,4.2942444E1,0E0,7.573559E0,5.1884613E0,6.0567274E0,1.2355015E1,2.8270561E1,1.0716339E1,1.0580764E1,1.5941223E1,1.7191895E1,9.552612E0,7.106308E0,5.7021713E0,4.974945E0,3.5903473E0,5.9195557E0,5.148979E0,1.2835531E0,0E0,3.257847E-2,5.5595093E0,1.2868984E-1,6.349869E0,4.614441E0,0E0,0E0,0E0,0E0,0E0,0E0,0E0,0E0,0E0,0E0,0E0,0E0,0E0,0E0,0E0,0E0,0E0,0E0,0E0,0E0,0E0,0E0,0E0,0E0,0E0,0E0,0E0,0E0,0E0,0E0,0E0,0E0,0E0,0E0,0E0,0E0,0E0,0E0,0E0,0E0,0E0,0E0,0E0,0E0,0E0,0E0,0E0,0E0,0E0,0E0,0E0,0E0,0E0,0E0,0E0,0E0,0E0,0E0,0E0,0E0],"parents":[2147483647,0,0,1,1,2,2,3,3,4,4,5,5,6,6,7,7,8,8,9,9,10,10,11,11,12,12,13,13,14,14,15,15,16,16,17,17,18,18,19,19,20,20,21,21,22,22,23,23,24,24,25,25,26,26,27,27,28,28,29,29,30,30,31,31,32,32,33,33,34,34,35,35,36,36,37,37,38,38,40,40,41,41,42,42,43,43,44,44,45,45,46,46,47,47,48,48,49,49,50,50,51,51,52,52,53,53,54,54,55,55,56,56,58,58,59,59,60,60,61,61,62,62],"right_children":[2,4,6,8,10,12,14,16,18,20,22,24,26,28,30,32,34,36,38,40,42,44,46,48,50,52,54,56,58,60,62,64,66,68,70,72,74,76,78,-1,80,82,84,86,88,90,92,94,96,98,100,102,104,106,108,110,112,-1,114,116,118,120,122,-1,-1,-1,-1,-1,-1,-1,-1,-1,-1,-1,-1,-1,-1,-1,-1,-1,-1,-1,-1,-1,-1,-1,-1,-1,-1,-1,-1,-1,-1,-1,-1,-1,-1,-1,-1,-1,-1,-1,-1,-1,-1,-1,-1,-1,-1,-1,-1,-1,-1,-1,-1,-1,-1,-1,-1,-1,-1,-1,-1],"split_conditions":[1E0,2.26207E3,2.8698E2,2.958E1,5.31E0,5.786E1,6.2916E2,2.8583E2,1.003E1,8.94E0,7.34E0,7.22E0,8.94E0,1E0,3.221E1,1.28E2,8.7E1,1E0,1.0369E2,2.28842E3,2.6E2,1.2371E2,2.1556E2,6.08E0,9.07E0,1.08E2,8.6E1,7.48E0,5.5E1,1.75E2,5.74E0,1E0,1.14E2,1.03E1,3.1063E2,5.25E0,3.3615E2,5.75E0,7.6E1,-4.0425178E-1,1E0,1E0,5.2E0,8.45E0,2.25E1,7.89E0,9.7E1,1.299E1,7.7E1,2.52054E3,3.415E1,7.84E0,1.71E0,3.1E1,6.909E1,8.373E1,1.13E0,-1.060814E-1,8.545E3,1.404E1,2.415E3,7.621E1,7.4E-1,-2.560666E-1,-3.8003376E-1,-2.0071281E-1,-3.6831755E-2,-1.2136161E-1,-3.2723868E-1,-1.5883979E-1,-2.2930708E-2,-2.2169626E-1,-7.939453E-2,2.2912377E-2,2.9537576E-1,-4.180688E-1,-2.4293104E-1,-2.1774854E-1,-1.0767078E-1,2.1703323E-2,-1.4809822E-1,-3.499038E-1,-1.11197375E-1,1.040802E-1,-1.8767531E-1,1.5649823E-2,-1.3770649E-1,-7.157535E-2,9.916115E-2,-1.08207166E-1,-2.5717857E-1,-7.996973E-2,7.5367115E-2,4.1860116E-1,2.8527597E-1,4.1327712E-1,5.626616E-1,3.4754953E-1,5.319737E-1,1.976452E-1,4.182656E-1,5.996556E-1,2.2546579E-1,2.6034796E-1,7.858773E-1,-4.073906E-3,4.0323237E-1,6.356828E-1,3.473905E-1,5.7599664E-1,1.1213837E-1,2.1551524E-1,-3.9862443E-2,7.214413E-2,2.1184646E-1,5.484878E-1,3.615784E-1,-2.171631E-2,8.579732E-2,4.111994E-1,7.1475816E-1,1.309372E-1,6.695843E-1],"split_indices":[29,9,13,5,4,5,9,13,11,11,4,4,11,34,5,1,1,28,13,9,13,13,13,4,10,1,3,4,3,1,4,27,3,11,13,4,13,4,1,0,25,19,14,11,5,4,3,11,1,9,7,11,11,1,8,8,6,0,0,11,0,8,14,0,0,0,0,0,0,0,0,0,0,0,0,0,0,0,0,0,0,0,0,0,0,0,0,0,0,0,0,0,0,0,0,0,0,0,0,0,0,0,0,0,0,0,0,0,0,0,0,0,0,0,0,0,0,0,0,0,0,0,0],"split_type":[0,0,0,0,0,0,0,0,0,0,0,0,0,0,0,0,0,0,0,0,0,0,0,0,0,0,0,0,0,0,0,0,0,0,0,0,0,0,0,0,0,0,0,0,0,0,0,0,0,0,0,0,0,0,0,0,0,0,0,0,0,0,0,0,0,0,0,0,0,0,0,0,0,0,0,0,0,0,0,0,0,0,0,0,0,0,0,0,0,0,0,0,0,0,0,0,0,0,0,0,0,0,0,0,0,0,0,0,0,0,0,0,0,0,0,0,0,0,0,0,0,0,0],"sum_hessian":[8.367E3,6.697E3,1.67E3,5.274E3,1.423E3,1.344E3,3.26E2,1.483E3,3.791E3,2.01E2,1.222E3,1.159E3,1.85E2,3.7E1,2.89E2,1.138E3,3.45E2,2.003E3,1.788E3,1.04E2,9.7E1,8.69E2,3.53E2,8.24E2,3.35E2,8E1,1.05E2,3.2E1,5E0,1.14E2,1.75E2,7.54E2,3.84E2,1.15E2,2.3E2,1.487E3,5.16E2,2.59E2,1.529E3,5E0,9.9E1,6.6E1,3.1E1,1.88E2,6.81E2,1.82E2,1.71E2,4.42E2,3.82E2,2.48E2,8.7E1,3.7E1,4.3E1,5.5E1,5E1,2.4E1,8E0,2E0,3E0,1.11E2,3E0,4.4E1,1.31E2,5.66E2,1.88E2,2.89E2,9.5E1,7.8E1,3.7E1,8.3E1,1.47E2,1.91E2,1.296E3,4.93E2,2.3E1,6.5E1,1.94E2,4.56E2,1.073E3,6.2E1,3.7E1,5.5E1,1.1E1,8E0,2.3E1,9.1E1,9.7E1,1.02E2,5.79E2,1.06E2,7.6E1,1.11E2,6E1,3.2E2,1.22E2,1.16E2,2.66E2,2.15E2,3.3E1,7E1,1.7E1,3.1E1,6E0,3E0,4E1,2E0,5.3E1,3.7E1,1.3E1,2.1E1,3E0,6E0,2E0,2E0,1E0,8.3E1,2.8E1,1E0,2E0,3.3E1,1.1E1,2E0,1.29E2],"tree_param":{"num_deleted":"0","num_feature":"36","num_nodes":"123","size_leaf_vector":"1"}},{"base_weights":[2.3142346E-3,-2.666091E-1,1.0802593E0,-1.8804885E-1,-5.035909E-1,8.124224E-1,1.1488253E0,-8.7017655E-2,-3.9102602E-1,-4.4378018E-1,-9.0979254E-1,7.461118E-1,1.3424557E0,9.7037375E-1,1.2520126E0,-2.579363E-1,5.801505E-2,-4.852242E-1,-2.0563638E-2,-8.220474E-1,-3.746441E-1,-1.0838149E0,-4.1450682E-1,3.36336E-1,8.2996196E-1,1.4347535E0,-1.8183708E-1,8.9404684E-1,1.2832218E0,1.0571849E0,1.3965329E0,-6.0116E-1,-1.8302488E-1,-2.1078658E-1,1.386141E-1,-4.0367448E-1,-7.8501993E-1,8.044108E-2,-3.608672E-1,-1.1411574E0,-6.537628E-1,-7.2098064E-1,-3.0359042E-1,-1.603651E0,-8.6063373E-1,-5.2379024E-1,4.409162E-1,2.711336E-1,4.0631965E-1,7.067506E-1,1.24556E0,1.491107E0,-7.218962E-2,6.889343E-2,-1.5072012E-1,8.3288234E-1,1.2183019E0,8.298585E-1,1.4727246E0,8.453378E-1,1.2413142E0,1.1585127E0,1.5509E0,-2.5452837E-1,-1.3675389E-1,2.315355E-2,-8.296062E-2,-2.2701921E-2,-1.6438194E-1,9.5197625E-2,2.3002843E-3,-2.2868134E-1,-8.072496E-2,-1.9246688E-1,-3.9989167E-1,-4.577917E-2,8.1341535E-2,-1.4081994E-1,2.4210598E-1,-3.922384E-2,-3.8247985E-1,-2.3444237E-1,-1.05243325E-1,-2.7535642E-2,-2.4063297E-1,-1.1697191E-1,-2.352198E-2,-5.587788E-1,-3.1570718E-1,-4.2435687E-2,-2.9635215E-1,-2.2869208E-1,-6.710884E-2,-9.784546E-2,2.4389209E-1,-1.6232759E-2,1.380103E-1,2.9837358E-1,1.5962988E-1,4.740144E-1,2.5280878E-1,1.9739944E-1,4.836171E-1,2.6977462E-1,1.7389351E-1,4.255286E-1,2.2113623E-1,3.72357E-1,1.3268991E-1,1.1659699E-1,4.612319E-1,2.8388578E-1,1.6513528E-1,4.129015E-1,2.233717E-1,4.827688E-1,3.0409285E-1,3.1203297E-1,4.909961E-1],"categories":[],"categories_nodes":[],"categories_segments":[],"categories_sizes":[],"default_left":[0,0,0,0,0,0,0,0,0,0,0,0,0,0,0,0,0,0,0,0,0,0,0,0,0,0,0,0,0,0,0,0,0,0,0,0,0,0,0,0,0,0,0,0,0,0,0,0,0,0,0,0,0,0,0,0,0,0,0,0,0,0,0,0,0,0,0,0,0,0,0,0,0,0,0,0,0,0,0,0,0,0,0,0,0,0,0,0,0,0,0,0,0,0,0,0,0,0,0,0,0,0,0,0,0,0,0,0,0,0,0,0,0,0,0,0,0,0,0],"id":7,"left_children":[1,3,5,7,9,11,13,15,17,19,21,23,25,27,29,31,33,35,37,39,41,43,45,47,49,51,53,55,57,59,61,63,65,67,69,71,73,75,77,79,81,83,85,87,89,91,93,95,-1,97,99,101,-1,-1,-1,103,105,107,109,111,113,115,117,-1,-1,-1,-1,-1,-1,-1,-1,-1,-1,-1,-1,-1,-1,-1,-1,-1,-1,-1,-1,-1,-1,-1,-1,-1,-1,-1,-1,-1,-1,-1,-1,-1,-1,-1,-1,-1,-1,-1,-1,-1,-1,-1,-1,-1,-1,-1,-1,-1,-1,-1,-1,-1,-1,-1,-1],"loss_changes":[2.4260422E3,1.2460431E2,2.9753784E1,1.0315732E2,4.0096375E1,1.1088882E1,2.323877E1,8.33301E1,5.83376E1,3.7743073E1,1.7909378E1,1.030365E1,5.466385E0,1.0577209E1,2.2118774E1,3.9562622E1,3.943814E1,3.2272644E1,1.1715599E1,1.1283035E1,3.009877E1,1.683461E1,5.5595083E0,3.2173033E0,1.2177338E1,3.663292E0,5.110916E-1,6.878784E0,6.8537292E0,1.3032288E1,1.5766174E1,9.530319E0,3.0874008E1,1.9091198E1,3.2759827E1,5.047206E1,2.1470413E1,1.1729039E1,1.0265608E1,1.0106087E1,5.490734E0,1.0595009E1,1.9872871E1,4.606598E0,1.0106552E1,3.4799242E0,2.2629051E0,3.2196987E0,0E0,9.474396E0,6.349434E0,2.3652573E0,0E0,0E0,0E0,5.159317E0,4.8285675E0,4.2334766E0,3.962555E0,4.569496E0,1.1786011E1,1.0905518E1,1.08688965E1,0E0,0E0,0E0,0E0,0E0,0E0,0E0,0E0,0E0,0E0,0E0,0E0,0E0,0E0,0E0,0E0,0E0,0E0,0E0,0E0,0E0,0E0,0E0,0E0,0E0,0E0,0E0,0E0,0E0,0E0,0E0,0E0,0E0,0E0,0E0,0E0,0E0,0E0,0E0,0E0,0E0,0E0,0E0,0E0,0E0,0E0,0E0,0E0,0E0,0E0,0E0,0E0,0E0,0E0,0E0,0E0],"parents":[2147483647,0,0,1,1,2,2,3,3,4,4,5,5,6,6,7,7,8,8,9,9,10,10,11,11,12,12,13,13,14,14,15,15,16,16,17,17,18,18,19,19,20,20,21,21,22,22,23,23,24,24,25,25,26,26,27,27,28,28,29,29,30,30,31,31,32,32,33,33,34,34,35,35,36,36,37,37,38,38,39,39,40,40,41,41,42,42,43,43,44,44,45,45,46,46,47,47,49,49,50,50,51,51,55,55,56,56,57,57,58,58,59,59,60,60,61,61,62,62],"right_children":[2,4,6,8,10,12,14,16,18,20,22,24,26,28,30,32,34,36,38,40,42,44,46,48,50,52,54,56,58,60,62,64,66,68,70,72,74,76,78,80,82,84,86,88,90,92,94,96,-1,98,100,102,-1,-1,-1,104,106,108,110,112,114,116,118,-1,-1,-1,-1,-1,-1,-1,-1,-1,-1,-1,-1,-1,-1,-1,-1,-1,-1,-1,-1,-1,-1,-1,-1,-1,-1,-1,-1,-1,-1,-1,-1,-1,-1,-1,-1,-1,-1,-1,-1,-1,-1,-1,-1,-1,-1,-1,-1,-1,-1,-1,-1,-1,-1,-1,-1],"split_conditions":[1E0,1E0,8.0925E2,1E0,7.76E0,1.64E2,1.6524E2,8E1,5.551E1,5.28E0,3.025E2,4.6E1,2.19E1,5.551E1,9.7E1,7.4517E2,1.3027E2,7.53E0,1.369E1,4.5E1,1.0799E2,1.16914E3,2.63187E3,1.077E1,1E0,1.643E1,3.558E3,1.33E2,3.331E3,9.1E1,5E1,4.8E1,5.24E0,7.14E0,8.14E0,5.56E0,1.42E1,5.6E1,2.50079E3,2.83E0,1E0,2.48E0,5.178E1,6.1E1,1.38587E3,2.529E1,4E0,1.7087E2,4.0631965E-1,7.7E0,9.2E1,4.76E0,-7.218962E-2,6.889343E-2,-1.5072012E-1,1.453E1,1E0,8.22E0,6.615E1,7.109E1,7.42E0,5.1E0,5.35E0,-2.5452837E-1,-1.3675389E-1,2.315355E-2,-8.296062E-2,-2.2701921E-2,-1.6438194E-1,9.5197625E-2,2.3002843E-3,-2.2868134E-1,-8.072496E-2,-1.9246688E-1,-3.9989167E-1,-4.577917E-2,8.1341535E-2,-1.4081994E-1,2.4210598E-1,-3.922384E-2,-3.8247985E-1,-2.3444237E-1,-1.05243325E-1,-2.7535642E-2,-2.4063297E-1,-1.1697191E-1,-2.352198E-2,-5.587788E-1,-3.1570718E-1,-4.2435687E-2,-2.9635215E-1,-2.2869208E-1,-6.710884E-2,-9.784546E-2,2.4389209E-1,-1.6232759E-2,1.380103E-1,2.9837358E-1,1.5962988E-1,4.740144E-1,2.5280878E-1,1.9739944E-1,4.836171E-1,2.6977462E-1,1.7389351E-1,4.255286E-1,2.2113623E-1,3.72357E-1,1.3268991E-1,1.1659699E-1,4.612319E-1,2.8388578E-1,1.6513528E-1,4.129015E-1,2.233717E-1,4.827688E-1,3.0409285E-1,3.1203297E-1,4.909961E-1],"split_indices":[29,27,9,31,4,1,13,3,5,4,13,3,14,5,1,9,13,4,11,2,13,9,9,10,18,11,0,3,0,3,2,2,11,4,11,4,11,2,9,11,16,11,5,2,9,7,14,13,0,11,1,10,0,0,0,11,24,10,13,8,4,11,4,0,0,0,0,0,0,0,0,0,0,0,0,0,0,0,0,0,0,0,0,0,0,0,0,0,0,0,0,0,0,0,0,0,0,0,0,0,0,0,0,0,0,0,0,0,0,0,0,0,0,0,0,0,0,0,0],"split_type":[0,0,0,0,0,0,0,0,0,0,0,0,0,0,0,0,0,0,0,0,0,0,0,0,0,0,0,0,0,0,0,0,0,0,0,0,0,0,0,0,0,0,0,0,0,0,0,0,0,0,0,0,0,0,0,0,0,0,0,0,0,0,0,0,0,0,0,0,0,0,0,0,0,0,0,0,0,0,0,0,0,0,0,0,0,0,0,0,0,0,0,0,0,0,0,0,0,0,0,0,0,0,0,0,0,0,0,0,0,0,0,0,0,0,0,0,0,0,0],"sum_hessian":[8.367E3,6.697E3,1.67E3,5.031E3,1.666E3,3.43E2,1.327E3,3.36E3,1.671E3,1.454E3,2.12E2,3.07E2,3.6E1,4.9E2,8.37E2,1.542E3,1.818E3,1.332E3,3.39E2,2.23E2,1.231E3,1.56E2,5.6E1,5.3E1,2.54E2,3.4E1,2E0,3.97E2,9.3E1,3.6E2,4.77E2,2.75E2,1.267E3,4.19E2,1.399E3,1.049E3,2.83E2,2.62E2,7.7E1,7.5E1,1.48E2,2.08E2,1.023E3,4.5E1,1.11E2,5E1,6E0,5.1E1,2E0,1.98E2,5.6E1,3.3E1,1E0,1E0,1E0,3.37E2,6E1,2.9E1,6.4E1,1.7E2,1.9E2,1.91E2,2.86E2,1E2,1.75E2,3.35E2,9.32E2,3E2,1.19E2,5.91E2,8.08E2,2.85E2,7.64E2,2.26E2,5.7E1,1.18E2,1.44E2,7.1E1,6E0,9E0,6.6E1,1.03E2,4.5E1,2.4E1,1.84E2,7.39E2,2.84E2,2.9E1,1.6E1,1.7E1,9.4E1,2.7E1,2.3E1,2E0,4E0,1.9E1,3.2E1,7.3E1,1.25E2,2.9E1,2.7E1,5E0,2.8E1,2.65E2,7.2E1,4.1E1,1.9E1,1.3E1,1.6E1,4E0,6E1,1.25E2,4.5E1,1.48E2,4.2E1,4.4E1,1.47E2,4.3E1,2.43E2],"tree_param":{"num_deleted":"0","num_feature":"36","num_nodes":"119","size_leaf_vector":"1"}},{"base_weights":[2.0083867E-3,-1.871994E-1,7.6042354E-1,-3.997001E-1,-1.1932802E-1,6.935574E-1,9.637273E-1,-5.892938E-1,-2.888834E-1,-1.698787E-1,2.0239119E-1,6.297902E-1,9.167709E-1,8.078133E-1,1.1425903E0,-7.760376E-1,-4.606947E-1,-6.448501E-1,-2.2568642E-1,-7.59601E-2,-3.7013054E-1,-4.1598967E-1,2.4823861E-1,5.244717E-1,7.7413005E-1,5.832669E-1,1.063115E0,7.293233E-1,1.3283926E0,1.0595891E0,1.7244804E0,-7.137229E-1,-1.4320441E0,-5.838523E-1,-1.8360049E-1,-1.7465276E-1,-8.254251E-1,-7.146977E-1,-1.7742406E-1,-3.3217245E-1,9.512866E-2,-5.8132026E-2,-4.2052987E-1,-6.464865E-1,4.235666E-2,3.2738814E-1,1.8830696E-2,5.965353E-1,2.5377363E-1,8.695614E-1,4.5427588E-1,3.0185744E-1,7.854728E-1,1.2293679E0,6.768694E-1,1.532209E0,6.7791975E-1,1.8720883E0,8.036152E-1,9.2338204E-1,1.4113692E0,4.1632384E-1,1.9920527E0,8.77667E-2,-2.2575797E-1,-9.579564E-2,-4.4214073E-1,-1.9493233E-1,-3.1755705E-4,-7.6061174E-2,2.6750383E-1,-1.6770186E-1,9.4356485E-2,-4.2367867E-1,-2.018414E-1,-2.3209947E-1,9.028664E-2,4.8721407E-2,-7.1959965E-2,-1.332391E-1,-3.5332996E-2,-1.9349711E-3,8.793517E-2,-3.2868427E-1,-5.8809128E-3,-1.5950787E-1,-8.064404E-2,1.8369792E-1,-2.3934697E-1,-9.4461285E-2,1.7929901E-1,6.283899E-2,1.6136289E-1,9.746292E-2,-2.1440484E-2,1.6583583E-1,3.3505455E-1,-7.827515E-2,1.0360907E-1,1.880167E-1,2.9261023E-1,1.9202392E-1,1.705783E-2,4.7923713E-3,3.3021963E-1,2.8497306E-1,1.0153752E-1,4.7162363E-1,2.9698426E-1,8.9828715E-2,2.7605367E-1,2.2942543E-2,5.010405E-1,-5.1060043E-2,2.1509811E-1,6.087247E-1,-1.775837E-3,1.1406556E-1,4.33772E-1,3.4755892E-1,1.8514729E-1,4.4831148E-1,5.6100514E-2,-7.263336E-2,1.9243814E-1,6.657055E-1,1.9287558E-1],"categories":[],"categories_nodes":[],"categories_segments":[],"categories_sizes":[],"default_left":[0,0,0,0,0,0,0,0,0,0,0,0,0,0,0,0,0,0,0,0,0,0,0,0,0,0,0,0,0,0,0,0,0,0,0,0,0,0,0,0,0,0,0,0,0,0,0,0,0,0,0,0,0,0,0,0,0,0,0,0,0,0,0,0,0,0,0,0,0,0,0,0,0,0,0,0,0,0,0,0,0,0,0,0,0,0,0,0,0,0,0,0,0,0,0,0,0,0,0,0,0,0,0,0,0,0,0,0,0,0,0,0,0,0,0,0,0,0,0,0,0,0,0,0,0,0,0],"id":8,"left_children":[1,3,5,7,9,11,13,15,17,19,21,23,25,27,29,31,33,35,37,39,41,43,45,47,49,51,53,55,57,59,61,63,65,67,69,71,73,75,77,79,81,83,85,87,89,91,93,95,97,99,101,103,105,107,109,111,113,115,117,119,121,123,125,-1,-1,-1,-1,-1,-1,-1,-1,-1,-1,-1,-1,-1,-1,-1,-1,-1,-1,-1,-1,-1,-1,-1,-1,-1,-1,-1,-1,-1,-1,-1,-1,-1,-1,-1,-1,-1,-1,-1,-1,-1,-1,-1,-1,-1,-1,-1,-1,-1,-1,-1,-1,-1,-1,-1,-1,-1,-1,-1,-1,-1,-1,-1,-1],"loss_changes":[1.200934E3,9.655563E1,2.2047424E1,3.3887238E1,8.261852E1,1.7371338E1,1.0538635E1,1.3979492E1,2.2912888E1,8.251746E1,1.966557E1,1.4552429E1,1.2948074E1,8.143005E0,7.300995E0,8.87059E0,1.2041756E1,1.2931335E1,2.0453121E1,1.3105457E2,2.20056E1,5.0984573E0,1.1669125E1,1.1006897E1,1.2211426E1,4.713434E0,1.1497055E1,7.050438E0,6.4845047E0,6.74646E0,6.8712463E0,8.927696E0,4.5869827E-1,9.450386E0,8.573448E0,8.448515E0,8.991356E0,4.90427E0,1.6908655E1,2.8679642E1,3.606162E1,7.8132577E0,2.0196564E1,6.584675E0,3.5604916E0,1.17521515E1,4.61073E0,9.64888E0,5.8412504E0,7.5336456E0,7.1262302E0,8.66103E0,3.3537865E0,9.356628E0,5.23456E0,2.0808926E0,6.2859573E0,3.8448715E0,3.8013449E0,8.213997E0,4.2936935E0,8.964937E-1,4.0850754E0,0E0,0E0,0E0,0E0,0E0,0E0,0E0,0E0,0E0,0E0,0E0,0E0,0E0,0E0,0E0,0E0,0E0,0E0,0E0,0E0,0E0,0E0,0E0,0E0,0E0,0E0,0E0,0E0,0E0,0E0,0E0,0E0,0E0,0E0,0E0,0E0,0E0,0E0,0E0,0E0,0E0,0E0,0E0,0E0,0E0,0E0,0E0,0E0,0E0,0E0,0E0,0E0,0E0,0E0,0E0,0E0,0E0,0E0,0E0,0E0,0E0,0E0,0E0,0E0],"parents":[2147483647,0,0,1,1,2,2,3,3,4,4,5,5,6,6,7,7,8,8,9,9,10,10,11,11,12,12,13,13,14,14,15,15,16,16,17,17,18,18,19,19,20,20,21,21,22,22,23,23,24,24,25,25,26,26,27,27,28,28,29,29,30,30,31,31,32,32,33,33,34,34,35,35,36,36,37,37,38,38,39,39,40,40,41,41,42,42,43,43,44,44,45,45,46,46,47,47,48,48,49,49,50,50,51,51,52,52,53,53,54,54,55,55,56,56,57,57,58,58,59,59,60,60,61,61,62,62],"right_children":[2,4,6,8,10,12,14,16,18,20,22,24,26,28,30,32,34,36,38,40,42,44,46,48,50,52,54,56,58,60,62,64,66,68,70,72,74,76,78,80,82,84,86,88,90,92,94,96,98,100,102,104,106,108,110,112,114,116,118,120,122,124,126,-1,-1,-1,-1,-1,-1,-1,-1,-1,-1,-1,-1,-1,-1,-1,-1,-1,-1,-1,-1,-1,-1,-1,-1,-1,-1,-1,-1,-1,-1,-1,-1,-1,-1,-1,-1,-1,-1,-1,-1,-1,-1,-1,-1,-1,-1,-1,-1,-1,-1,-1,-1,-1,-1,-1,-1,-1,-1,-1,-1,-1,-1,-1,-1],"split_conditions":[1E0,9.0891E2,2.16282E3,4.6E1,3.1063E2,5.417E1,3.956E1,8.6E1,2.25E1,7.14E0,1.824E1,9.9E1,7.7E-1,3.2437E2,3.025E2,7.87E0,2.6374E2,5.41E0,8.828E1,5.76E0,3.32E0,1.05E0,1E0,7.649E3,1.397E1,8.1E1,1.544E3,1.109E1,6.97E0,1.1E2,5.44E0,5.9E2,1.037E1,9.248E3,6.228E1,8.8E1,1.557E1,9.7E1,3.44E0,1.06E2,4.818E1,1.694E1,4.345E1,4.45E0,8.17E0,4.818E1,1.657E1,3.3002E2,5.26E0,1.5044E2,1.5639E3,9.28E0,6.2E-1,1.14E0,8.52E0,2.337E3,3.5E-1,7.9E1,6.97E0,6.92E0,1.063E1,6.7E1,1E0,8.77667E-2,-2.2575797E-1,-9.579564E-2,-4.4214073E-1,-1.9493233E-1,-3.1755705E-4,-7.6061174E-2,2.6750383E-1,-1.6770186E-1,9.4356485E-2,-4.2367867E-1,-2.018414E-1,-2.3209947E-1,9.028664E-2,4.8721407E-2,-7.1959965E-2,-1.332391E-1,-3.5332996E-2,-1.9349711E-3,8.793517E-2,-3.2868427E-1,-5.8809128E-3,-1.5950787E-1,-8.064404E-2,1.8369792E-1,-2.3934697E-1,-9.4461285E-2,1.7929901E-1,6.283899E-2,1.6136289E-1,9.746292E-2,-2.1440484E-2,1.6583583E-1,3.3505455E-1,-7.827515E-2,1.0360907E-1,1.880167E-1,2.9261023E-1,1.9202392E-1,1.705783E-2,4.7923713E-3,3.3021963E-1,2.8497306E-1,1.0153752E-1,4.7162363E-1,2.9698426E-1,8.9828715E-2,2.7605367E-1,2.2942543E-2,5.010405E-1,-5.1060043E-2,2.1509811E-1,6.087247E-1,-1.775837E-3,1.1406556E-1,4.33772E-1,3.4755892E-1,1.8514729E-1,4.4831148E-1,5.6100514E-2,-7.263336E-2,1.9243814E-1,6.657055E-1,1.9287558E-1],"split_indices":[29,9,9,2,13,5,5,1,5,4,5,3,6,13,13,4,13,11,13,4,11,6,27,0,11,1,12,7,10,3,4,0,7,0,5,3,7,2,11,3,5,5,5,10,10,5,7,13,4,13,9,10,6,6,14,0,6,2,4,4,10,3,35,0,0,0,0,0,0,0,0,0,0,0,0,0,0,0,0,0,0,0,0,0,0,0,0,0,0,0,0,0,0,0,0,0,0,0,0,0,0,0,0,0,0,0,0,0,0,0,0,0,0,0,0,0,0,0,0,0,0,0,0,0,0,0,0],"split_type":[0,0,0,0,0,0,0,0,0,0,0,0,0,0,0,0,0,0,0,0,0,0,0,0,0,0,0,0,0,0,0,0,0,0,0,0,0,0,0,0,0,0,0,0,0,0,0,0,0,0,0,0,0,0,0,0,0,0,0,0,0,0,0,0,0,0,0,0,0,0,0,0,0,0,0,0,0,0,0,0,0,0,0,0,0,0,0,0,0,0,0,0,0,0,0,0,0,0,0,0,0,0,0,0,0,0,0,0,0,0,0,0,0,0,0,0,0,0,0,0,0,0,0,0,0,0,0],"sum_hessian":[8.367E3,6.697E3,1.67E3,1.62E3,5.077E3,1.26E3,4.1E2,5.96E2,1.024E3,4.388E3,6.89E2,9.83E2,2.77E2,2.22E2,1.88E2,2.41E2,3.55E2,1.53E2,8.71E2,2.988E3,1.4E3,4.7E1,6.42E2,5.71E2,4.12E2,8.6E1,1.91E2,1.95E2,2.7E1,1.67E2,2.1E1,2.22E2,1.9E1,2.45E2,1.1E2,4.3E1,1.1E2,7.7E1,7.94E2,1.196E3,1.792E3,1.95E2,1.205E3,3.1E1,1.6E1,4.77E2,1.65E2,4.5E2,1.21E2,3.16E2,9.6E1,3.7E1,4.9E1,1.32E2,5.9E1,1E1,1.85E2,1.2E1,1.5E1,1.23E2,4.4E1,4E0,1.7E1,8E0,2.14E2,1E0,1.8E1,2.2E2,2.5E1,1.04E2,6E0,2.4E1,1.9E1,2.1E1,8.9E1,7.3E1,4E0,1.23E2,6.71E2,7.85E2,4.11E2,1.185E3,6.07E2,6E0,1.89E2,6.94E2,5.11E2,3E0,2.8E1,1E1,6E0,3.07E2,1.7E2,3.7E1,1.28E2,4.17E2,3.3E1,1.8E1,1.03E2,9.8E1,2.18E2,6.5E1,3.1E1,2.8E1,9E0,3.5E1,1.4E1,5.2E1,8E1,2.4E1,3.5E1,1E0,9E0,8E0,1.77E2,1.1E1,1E0,1E1,5E0,6.8E1,5.5E1,4.1E1,3E0,1E0,3E0,1.4E1,3E0],"tree_param":{"num_deleted":"0","num_feature":"36","num_nodes":"127","size_leaf_vector":"1"}},{"base_weights":[2.010323E-3,-1.3131908E-1,5.3644377E-1,-2.3657063E-1,-2.7866444E-2,4.2528304E-1,6.197472E-1,-3.0350554E-1,-2.5693553E-2,-4.0123525E-1,4.4267327E-3,6.240291E-1,3.582468E-1,4.832469E-1,7.368703E-1,-5.297008E-1,-2.4183916E-1,-1.1867729E-1,2.638799E-1,-7.658042E-2,-4.786798E-1,6.5304905E-2,-2.6190975E-1,3.3710012E-1,8.211579E-1,3.2552502E-1,7.288794E-1,1.5172105E-1,5.615373E-1,7.997151E-1,3.933766E-1,-1.2110561E0,-4.8430747E-1,-2.8463063E-1,6.701124E-2,-4.022447E-2,-4.1487515E-1,-1.8787284E-1,4.0065822E-1,-6.739372E-1,1.551358E-1,-5.0557643E-1,7.6285326E-1,-2.3044272E-1,1.1314241E-1,-4.501761E-1,-1.5434803E-1,5.080206E-1,-1.2660117E-1,9.6979904E-1,3.724503E-1,3.5620096E-1,-7.804426E-2,4.6774957E-1,1.295506E0,2.060549E-1,-2.3090951E-1,7.1061444E-1,3.3505732E-1,4.6314624E-1,8.648074E-1,5.343906E-1,-9.490033E-2,6.023362E-2,-3.784351E-1,-1.676224E-1,-2.7512493E-2,-7.567777E-2,-2.2596262E-1,-3.767027E-1,3.3526115E-2,-2.996457E-2,7.9383925E-2,-2.9190338E-1,-4.693874E-2,-8.893489E-2,3.0788878E-1,1.4710852E-2,1.9852807E-1,-2.829396E-1,2.1516581E-1,3.73463E-1,-1.4921748E-3,-1.9525415E-1,-9.951625E-2,2.614187E-1,4.930258E-2,1.0576783E-2,-1.2475046E-1,9.7602485E-3,7.978976E-2,-1.9160256E-1,-7.882644E-2,-6.4596385E-3,-1.313419E-1,-6.13952E-2,1.901042E-1,4.1251914E-3,-1.7354313E-1,2.505391E-1,4.606184E-1,1.834047E-2,2.3473287E-1,3.4179832E-3,1.19939566E-1,2.0206058E-2,-2.4487762E-1,2.4097978E-1,1.689434E-2,6.522885E-1,1.9900341E-1,1.5840442E-1,5.977703E-3,-6.944263E-2,2.2444259E-1,4.6716057E-2,1.8422765E-1,-8.1864273E-4,1.9650921E-1,2.4647336E-1,4.165626E-1,6.059647E-5,1.870255E-1,-1.5148914E-1,7.477003E-2],"categories":[],"categories_nodes":[],"categories_segments":[],"categories_sizes":[],"default_left":[0,0,0,0,0,0,0,0,0,0,0,0,0,0,0,0,0,0,0,0,0,0,0,0,0,0,0,0,0,0,0,0,0,0,0,0,0,0,0,0,0,0,0,0,0,0,0,0,0,0,0,0,0,0,0,0,0,0,0,0,0,0,0,0,0,0,0,0,0,0,0,0,0,0,0,0,0,0,0,0,0,0,0,0,0,0,0,0,0,0,0,0,0,0,0,0,0,0,0,0,0,0,0,0,0,0,0,0,0,0,0,0,0,0,0,0,0,0,0,0,0,0,0,0,0],"id":9,"left_children":[1,3,5,7,9,11,13,15,17,19,21,23,25,27,29,31,33,35,37,39,41,43,45,47,49,51,53,55,57,59,61,63,65,67,69,71,73,75,77,79,81,83,85,87,89,91,93,95,97,99,101,103,105,107,109,111,-1,113,115,117,119,121,123,-1,-1,-1,-1,-1,-1,-1,-1,-1,-1,-1,-1,-1,-1,-1,-1,-1,-1,-1,-1,-1,-1,-1,-1,-1,-1,-1,-1,-1,-1,-1,-1,-1,-1,-1,-1,-1,-1,-1,-1,-1,-1,-1,-1,-1,-1,-1,-1,-1,-1,-1,-1,-1,-1,-1,-1,-1,-1,-1,-1,-1,-1],"loss_changes":[5.9633813E2,7.292492E1,1.5210022E1,4.685414E1,4.074327E1,9.35582E0,1.4879852E1,3.502246E1,2.159874E1,6.7267456E0,5.0459103E1,9.904335E0,6.311722E0,1.1412994E1,1.0716248E1,1.6084198E1,2.6213516E1,1.4088509E1,1.2124317E1,7.440667E0,7.631977E0,3.5862522E1,1.1655415E1,6.008521E0,6.708626E0,6.192974E0,5.756441E0,4.464127E0,1.184906E1,9.04184E0,5.62788E0,2.601162E0,1.4764656E1,2.62184E1,1.4461956E1,8.77381E0,1.8164902E1,6.36845E0,1.3738935E1,6.2938147E0,6.8108377E0,5.1636543E0,1.8161225E-1,1.7402893E1,2.685871E1,7.2512207E0,1.3920246E1,5.055169E0,1.339808E0,4.735016E0,3.526002E0,6.9556274E0,3.9190288E0,4.2341027E0,5.779667E0,4.9034214E0,0E0,7.774353E0,7.110321E0,6.4381676E0,7.0098877E0,2.9960022E0,2.8070705E0,0E0,0E0,0E0,0E0,0E0,0E0,0E0,0E0,0E0,0E0,0E0,0E0,0E0,0E0,0E0,0E0,0E0,0E0,0E0,0E0,0E0,0E0,0E0,0E0,0E0,0E0,0E0,0E0,0E0,0E0,0E0,0E0,0E0,0E0,0E0,0E0,0E0,0E0,0E0,0E0,0E0,0E0,0E0,0E0,0E0,0E0,0E0,0E0,0E0,0E0,0E0,0E0,0E0,0E0,0E0,0E0,0E0,0E0,0E0,0E0,0E0,0E0],"parents":[2147483647,0,0,1,1,2,2,3,3,4,4,5,5,6,6,7,7,8,8,9,9,10,10,11,11,12,12,13,13,14,14,15,15,16,16,17,17,18,18,19,19,20,20,21,21,22,22,23,23,24,24,25,25,26,26,27,27,28,28,29,29,30,30,31,31,32,32,33,33,34,34,35,35,36,36,37,37,38,38,39,39,40,40,41,41,42,42,43,43,44,44,45,45,46,46,47,47,48,48,49,49,50,50,51,51,52,52,53,53,54,54,55,55,57,57,58,58,59,59,60,60,61,61,62,62],"right_children":[2,4,6,8,10,12,14,16,18,20,22,24,26,28,30,32,34,36,38,40,42,44,46,48,50,52,54,56,58,60,62,64,66,68,70,72,74,76,78,80,82,84,86,88,90,92,94,96,98,100,102,104,106,108,110,112,-1,114,116,118,120,122,124,-1,-1,-1,-1,-1,-1,-1,-1,-1,-1,-1,-1,-1,-1,-1,-1,-1,-1,-1,-1,-1,-1,-1,-1,-1,-1,-1,-1,-1,-1,-1,-1,-1,-1,-1,-1,-1,-1,-1,-1,-1,-1,-1,-1,-1,-1,-1,-1,-1,-1,-1,-1,-1,-1,-1,-1,-1,-1,-1,-1,-1,-1],"split_conditions":[1E0,1.05E2,5.2E1,1E0,5.09E0,5.1E0,8.2E1,2.563E1,1.19E2,6E-1,7.61E0,1.7087E2,3.2336E2,5.43E0,1.546E1,8.054E1,2.48504E3,1.364E1,8.9838E2,3.068E1,1.59E0,9.957E1,1.16914E3,1.74E1,7.46E0,2.325E1,1.47E2,5.37E0,7.09E0,2.294E1,7.61E3,1.577E1,1.31E2,7.99E0,2.3E1,5.786E1,5.8E0,3.785E1,5.9E1,1E0,2.65E0,4.83E3,2.778E3,7.57E0,1.06E2,9.9E-1,1.181E1,7.074E1,1E0,1.33E2,1.81391E3,1.999E1,2.8055E2,1.538E1,2.184E3,5.463E1,-2.3090951E-1,3.5E1,1.74E1,1.02732E3,2.63187E3,5.8E-1,3.165E1,6.023362E-2,-3.784351E-1,-1.676224E-1,-2.7512493E-2,-7.567777E-2,-2.2596262E-1,-3.767027E-1,3.3526115E-2,-2.996457E-2,7.9383925E-2,-2.9190338E-1,-4.693874E-2,-8.893489E-2,3.0788878E-1,1.4710852E-2,1.9852807E-1,-2.829396E-1,2.1516581E-1,3.73463E-1,-1.4921748E-3,-1.9525415E-1,-9.951625E-2,2.614187E-1,4.930258E-2,1.0576783E-2,-1.2475046E-1,9.7602485E-3,7.978976E-2,-1.9160256E-1,-7.882644E-2,-6.4596385E-3,-1.313419E-1,-6.13952E-2,1.901042E-1,4.1251914E-3,-1.7354313E-1,2.505391E-1,4.606184E-1,1.834047E-2,2.3473287E-1,3.4179832E-3,1.19939566E-1,2.0206058E-2,-2.4487762E-1,2.4097978E-1,1.689434E-2,6.522885E-1,1.9900341E-1,1.5840442E-1,5.977703E-3,-6.944263E-2,2.2444259E-1,4.6716057E-2,1.8422765E-1,-8.1864273E-4,1.9650921E-1,2.4647336E-1,4.165626E-1,6.059647E-5,1.870255E-1,-1.5148914E-1,7.477003E-2],"split_indices":[29,1,2,28,4,11,3,5,3,6,4,13,13,4,11,13,9,11,9,5,6,13,9,14,4,14,1,4,4,5,0,5,3,4,3,5,4,7,1,18,11,0,0,11,3,6,11,13,33,3,9,5,13,11,0,8,0,1,14,9,9,6,5,0,0,0,0,0,0,0,0,0,0,0,0,0,0,0,0,0,0,0,0,0,0,0,0,0,0,0,0,0,0,0,0,0,0,0,0,0,0,0,0,0,0,0,0,0,0,0,0,0,0,0,0,0,0,0,0,0,0,0,0,0,0],"split_type":[0,0,0,0,0,0,0,0,0,0,0,0,0,0,0,0,0,0,0,0,0,0,0,0,0,0,0,0,0,0,0,0,0,0,0,0,0,0,0,0,0,0,0,0,0,0,0,0,0,0,0,0,0,0,0,0,0,0,0,0,0,0,0,0,0,0,0,0,0,0,0,0,0,0,0,0,0,0,0,0,0,0,0,0,0,0,0,0,0,0,0,0,0,0,0,0,0,0,0,0,0,0,0,0,0,0,0,0,0,0,0,0,0,0,0,0,0,0,0,0,0,0,0,0,0],"sum_hessian":[8.367E3,6.697E3,1.67E3,3.319E3,3.378E3,7.18E2,9.52E2,2.519E3,8E2,2.68E2,3.11E3,1.79E2,5.39E2,4.42E2,5.1E2,5.38E2,1.981E3,6.06E2,1.94E2,5.2E1,2.16E2,2.532E3,5.78E2,7.4E1,1.05E2,4.97E2,4.2E1,8.5E1,3.57E2,4.3E2,8E1,3.2E1,5.06E2,1.74E3,2.41E2,4.8E2,1.26E2,4.5E1,1.49E2,1.4E1,3.8E1,2.12E2,4E0,3.52E2,2.18E3,2.09E2,3.69E2,5.4E1,2E1,7.8E1,2.7E1,4.62E2,3.5E1,3E1,1.2E1,8.1E1,4E0,2.14E2,1.43E2,7.1E1,3.59E2,6.2E1,1.8E1,1E0,3.1E1,4.25E2,8.1E1,1.629E3,1.11E2,7E0,2.34E2,4.02E2,7.8E1,3.9E1,8.7E1,4.2E1,3E0,6.4E1,8.5E1,1.2E1,2E0,4E0,3.4E1,1.14E2,9.8E1,3E0,1E0,1.45E2,2.07E2,1.428E3,7.52E2,1.03E2,1.06E2,2.52E2,1.17E2,8E0,4.6E1,1.6E1,4E0,6.5E1,1.3E1,1.6E1,1.1E1,5.2E1,4.1E2,3E1,5E0,1.6E1,1.4E1,4E0,8E0,2.9E1,5.2E1,8E0,2.06E2,8.8E1,5.5E1,2.1E1,5E1,3.34E2,2.5E1,9E0,5.3E1,8E0,1E1],"tree_param":{"num_deleted":"0","num_feature":"36","num_nodes":"125","size_leaf_vector":"1"}},{"base_weights":[1.6571954E-3,-9.209174E-2,3.7743738E-1,-1.3229457E-1,1.10417925E-1,-5.461972E-2,3.9579952E-1,-2.4721535E-1,-6.263062E-2,-1.7495058E-2,2.3075826E-1,2.0998743E-1,-3.4964532E-1,3.7033194E-1,6.474155E-1,-2.7399358E-1,2.7697036E-1,-2.754307E-1,-1.768026E-2,1.3136882E-1,-1.8257259E-1,8.703091E-2,3.644803E-1,6.2974894E-1,-7.2899945E-2,-1.5387556E-1,-1.2049633E0,1.7318779E-1,4.0429237E-1,7.12543E-1,7.3720574E-2,-2.1469235E-1,-4.5469812E-1,-2.3919627E-1,4.9237028E-1,-4.9592957E-1,-1.768352E-1,5.160631E-2,-1.6735028E-1,1.7010605E-1,-9.4704187E-1,-2.6920915E-1,1.7975424E-1,-2.0952547E-1,2.1941017E-1,3.1685367E-1,1.0058851E0,7.8856534E-1,-4.137516E-3,-2.7870166E-1,4.3731853E-1,-7.888543E-1,5.5157486E-2,-1.05611615E-1,-4.6302482E-1,2.5590625E-1,-9.26148E-2,4.6364745E-1,2.3164113E-1,5.8363134E-1,1.0365146E0,-1.479405E-1,2.4246685E-1,-4.170999E-2,-1.1030988E-1,-2.669227E-1,-1.2048707E-1,-2.2313347E-1,6.602804E-2,-8.740243E-2,1.7799279E-1,-1.6625758E-1,3.578792E-2,-2.1791924E-2,-1.4015314E-1,-2.4028217E-2,5.477595E-2,4.760451E-2,-6.715623E-2,1.4447872E-2,1.466339E-1,-4.8727968E-1,-6.745453E-2,-1.7566362E-1,-4.7791727E-2,8.1804775E-2,-4.1010508E-1,-1.2156374E-1,5.6722064E-2,4.261182E-3,1.1787289E-1,8.4602505E-2,3.4015194E-1,-1.22291E-1,3.556769E-1,4.8531536E-2,2.6932406E-1,-5.551615E-2,3.535576E-2,-1.7434922E-1,1.6418267E-2,1.7204122E-1,1.9387627E-2,-3.6926653E-2,-2.6379013E-1,-8.5080914E-2,2.0503165E-1,4.3852028E-2,1.5380965E-1,1.4536315E-1,-5.79488E-2,1.22136325E-1,1.9154249E-1,3.3854548E-2,1.2629552E-1,1.0460984E-1,2.494235E-1,3.6048976E-1,3.1959536E-3,1.6907948E-1,1.1135928E-2],"categories":[],"categories_nodes":[],"categories_segments":[],"categories_sizes":[],"default_left":[0,0,0,0,0,0,0,0,0,0,0,0,0,0,0,0,0,0,0,0,0,0,0,0,0,0,0,0,0,0,0,0,0,0,0,0,0,0,0,0,0,0,0,0,0,0,0,0,0,0,0,0,0,0,0,0,0,0,0,0,0,0,0,0,0,0,0,0,0,0,0,0,0,0,0,0,0,0,0,0,0,0,0,0,0,0,0,0,0,0,0,0,0,0,0,0,0,0,0,0,0,0,0,0,0,0,0,0,0,0,0,0,0,0,0,0,0,0,0,0,0],"id":10,"left_children":[1,3,5,7,9,11,13,15,17,19,21,23,25,27,29,31,33,35,37,39,41,43,45,47,49,51,53,55,57,59,61,63,65,67,69,71,73,75,77,79,81,83,85,87,89,91,93,95,97,99,101,103,105,-1,-1,107,109,111,113,115,117,-1,119,-1,-1,-1,-1,-1,-1,-1,-1,-1,-1,-1,-1,-1,-1,-1,-1,-1,-1,-1,-1,-1,-1,-1,-1,-1,-1,-1,-1,-1,-1,-1,-1,-1,-1,-1,-1,-1,-1,-1,-1,-1,-1,-1,-1,-1,-1,-1,-1,-1,-1,-1,-1,-1,-1,-1,-1,-1,-1],"loss_changes":[2.9483096E2,5.4546116E1,1.3278458E1,4.472914E1,1.7090372E1,5.4599667E0,1.0032379E1,2.9679428E1,3.329243E1,1.3269415E1,1.096184E1,4.4394817E0,5.340285E0,9.6914215E0,5.402508E0,2.1409393E1,1.1569546E1,1.3108608E1,2.9822735E1,1.2025096E1,8.084423E0,1.0920414E1,8.723476E0,1.5133367E0,2.53697E0,3.7599945E0,1.1887054E0,4.772845E0,1.2630524E1,4.866104E0,1.6500452E0,1.7463943E1,1.1072113E1,7.34793E0,5.947672E0,6.7689934E0,1.2702286E1,3.3928394E1,1.6799593E1,1.0663268E1,4.525651E0,7.103368E0,7.559704E0,6.784671E0,6.830228E0,7.5659256E0,5.563614E0,6.7598104E-1,1.1008901E-1,1.7462522E0,3.1814003E-1,3.1327915E-1,4.876237E0,0E0,0E0,4.574522E0,3.1112633E0,8.871384E0,7.1501427E0,5.2983932E0,6.0851746E0,0E0,8.363436E-1,0E0,0E0,0E0,0E0,0E0,0E0,0E0,0E0,0E0,0E0,0E0,0E0,0E0,0E0,0E0,0E0,0E0,0E0,0E0,0E0,0E0,0E0,0E0,0E0,0E0,0E0,0E0,0E0,0E0,0E0,0E0,0E0,0E0,0E0,0E0,0E0,0E0,0E0,0E0,0E0,0E0,0E0,0E0,0E0,0E0,0E0,0E0,0E0,0E0,0E0,0E0,0E0,0E0,0E0,0E0,0E0,0E0,0E0],"parents":[2147483647,0,0,1,1,2,2,3,3,4,4,5,5,6,6,7,7,8,8,9,9,10,10,11,11,12,12,13,13,14,14,15,15,16,16,17,17,18,18,19,19,20,20,21,21,22,22,23,23,24,24,25,25,26,26,27,27,28,28,29,29,30,30,31,31,32,32,33,33,34,34,35,35,36,36,37,37,38,38,39,39,40,40,41,41,42,42,43,43,44,44,45,45,46,46,47,47,48,48,49,49,50,50,51,51,52,52,55,55,56,56,57,57,58,58,59,59,60,60,62,62],"right_children":[2,4,6,8,10,12,14,16,18,20,22,24,26,28,30,32,34,36,38,40,42,44,46,48,50,52,54,56,58,60,62,64,66,68,70,72,74,76,78,80,82,84,86,88,90,92,94,96,98,100,102,104,106,-1,-1,108,110,112,114,116,118,-1,120,-1,-1,-1,-1,-1,-1,-1,-1,-1,-1,-1,-1,-1,-1,-1,-1,-1,-1,-1,-1,-1,-1,-1,-1,-1,-1,-1,-1,-1,-1,-1,-1,-1,-1,-1,-1,-1,-1,-1,-1,-1,-1,-1,-1,-1,-1,-1,-1,-1,-1,-1,-1,-1,-1,-1,-1,-1,-1],"split_conditions":[1E0,2.37913E3,4.1434E2,4.7E1,2.0331E2,1.249E1,3.205E2,3.3615E2,2.377E1,9.28E0,5.8E1,7.52E0,8.373E1,5.28E0,1.028E1,1E0,7.4E1,5.86E0,7.16E0,8.14E0,1.54E2,5.8E1,1.5E0,1E0,2.8492E2,4.157E1,6.2E1,7.649E3,7.46E0,4.939E1,2.884E1,1.208E1,5.6807E2,6.11E0,1.9E1,9.3E1,7.6E0,5.98E0,3.66E0,2.69925E3,3.824E1,5.74E0,2.091E3,1E0,3.74E1,9.665E3,5.35E0,2E1,4.677E3,9.6E-1,5.813E3,3.3E-1,4.711E1,-1.05611615E-1,-4.6302482E-1,1.74E1,6.11E0,1.41E2,4.361E1,8.7E1,1E0,-1.479405E-1,6.6E1,-4.170999E-2,-1.1030988E-1,-2.669227E-1,-1.2048707E-1,-2.2313347E-1,6.602804E-2,-8.740243E-2,1.7799279E-1,-1.6625758E-1,3.578792E-2,-2.1791924E-2,-1.4015314E-1,-2.4028217E-2,5.477595E-2,4.760451E-2,-6.715623E-2,1.4447872E-2,1.466339E-1,-4.8727968E-1,-6.745453E-2,-1.7566362E-1,-4.7791727E-2,8.1804775E-2,-4.1010508E-1,-1.2156374E-1,5.6722064E-2,4.261182E-3,1.1787289E-1,8.4602505E-2,3.4015194E-1,-1.22291E-1,3.556769E-1,4.8531536E-2,2.6932406E-1,-5.551615E-2,3.535576E-2,-1.7434922E-1,1.6418267E-2,1.7204122E-1,1.9387627E-2,-3.6926653E-2,-2.6379013E-1,-8.5080914E-2,2.0503165E-1,4.3852028E-2,1.5380965E-1,1.4536315E-1,-5.79488E-2,1.22136325E-1,1.9154249E-1,3.3854548E-2,1.2629552E-1,1.0460984E-1,2.494235E-1,3.6048976E-1,3.1959536E-3,1.6907948E-1,1.1135928E-2],"split_indices":[29,9,9,2,13,14,13,13,5,11,2,11,8,4,10,27,1,4,4,4,1,3,6,17,13,8,1,0,4,5,5,11,9,4,2,2,4,4,11,9,5,4,12,24,5,0,4,2,0,6,0,6,5,0,0,14,10,1,5,3,15,0,2,0,0,0,0,0,0,0,0,0,0,0,0,0,0,0,0,0,0,0,0,0,0,0,0,0,0,0,0,0,0,0,0,0,0,0,0,0,0,0,0,0,0,0,0,0,0,0,0,0,0,0,0,0,0,0,0,0,0],"split_type":[0,0,0,0,0,0,0,0,0,0,0,0,0,0,0,0,0,0,0,0,0,0,0,0,0,0,0,0,0,0,0,0,0,0,0,0,0,0,0,0,0,0,0,0,0,0,0,0,0,0,0,0,0,0,0,0,0,0,0,0,0,0,0,0,0,0,0,0,0,0,0,0,0,0,0,0,0,0,0,0,0,0,0,0,0,0,0,0,0,0,0,0,0,0,0,0,0,0,0,0,0,0,0,0,0,0,0,0,0,0,0,0,0,0,0,0,0,0,0,0,0],"sum_hessian":[8.367E3,6.697E3,1.67E3,5.588E3,1.109E3,6.8E1,1.602E3,2.108E3,3.48E3,5.38E2,5.71E2,3.6E1,3.2E1,1.457E3,1.45E2,2.006E3,1.02E2,6.06E2,2.874E3,2.83E2,2.55E2,2.76E2,2.95E2,1.4E1,2.2E1,2.7E1,5E0,2.15E2,1.242E3,1.3E2,1.5E1,1.512E3,4.94E2,3E1,7.2E1,1.86E2,4.2E2,1.965E3,9.09E2,2.74E2,9E0,2.06E2,4.9E1,8.5E1,1.91E2,2.76E2,1.9E1,1.1E1,3E0,1.6E1,6E0,6E0,2.1E1,2E0,3E0,1.64E2,5.1E1,9.23E2,3.19E2,9.5E1,3.5E1,3E0,1.2E1,1.013E3,4.99E2,5.2E1,4.42E2,1.4E1,1.6E1,8E0,6.4E1,1.7E2,1.6E1,3.1E2,1.1E2,9.8E2,9.85E2,1.34E2,7.75E2,1.99E2,7.5E1,4E0,5E0,5.2E1,1.54E2,4.7E1,2E0,5.7E1,2.8E1,8.8E1,1.03E2,2.66E2,1E1,2E0,1.7E1,2E0,9E0,1E0,2E0,8E0,8E0,4E0,2E0,1E0,5E0,1.4E1,7E0,1.16E2,4.8E1,7E0,4.4E1,7E2,2.23E2,1.97E2,1.22E2,5E1,4.5E1,3E1,5E0,4E0,8E0],"tree_param":{"num_deleted":"0","num_feature":"36","num_nodes":"121","size_leaf_vector":"1"}},{"base_weights":[1.1567146E-3,-6.463113E-2,2.6485857E-1,-2.557101E-1,-3.1170081E-2,2.3221974E-1,4.3561786E-1,-2.8385964E-1,2.618541E-1,-1.5868144E-1,1.8142715E-2,1.09419584E-1,2.7649787E-1,2.0649245E-1,5.396618E-1,-3.710728E-1,-1.0431421E-1,3.780349E-1,-1.2268242E0,-2.2602117E-1,2.703589E-2,6.873292E-2,-1.30975E-1,7.8197956E-2,5.421456E-1,1.2640204E-1,3.2898384E-1,-1.8675184E-2,3.9780143E-1,7.3410124E-1,3.8490397E-1,-2.7742523E-1,-5.5618614E-1,-3.243712E-1,5.5529878E-2,-4.4750622E-1,5.036338E-1,-4.2086503E-1,-1.0479698E-1,-7.060124E-2,-3.0364037E-1,-6.0779024E-2,2.6925907E-1,-1.7738982E-1,1.0512898E-1,-1.6766705E-1,2.0515618E-1,1.962876E-1,-7.692071E-2,6.61453E-1,-1.6597787E-1,5.347705E-1,8.786407E-2,4.7220555E-1,2.0930222E-1,-1.8514216E-1,5.752824E-1,4.5386466E-1,-3.1875658E-1,2.7037406E-1,8.4580845E-1,-6.092415E-1,4.2046514E-1,-1.934789E-1,-5.427685E-2,-8.570603E-2,-2.0514496E-1,-2.707372E-1,-6.362439E-2,-1.4303598E-1,4.1981988E-2,-1.70853E-1,4.267745E-2,3.520841E-2,2.3311666E-1,-9.760408E-3,-2.213807E-1,-1.7495081E-1,-7.4463844E-2,-2.3703817E-3,-1.397867E-1,3.1396206E-2,1.9953907E-1,-8.320065E-2,5.914158E-2,8.8478565E-2,1.615429E-2,-1.2595554E-1,-4.214136E-2,2.0759897E-1,6.928359E-3,-7.210696E-2,7.98684E-2,-5.270127E-2,9.915572E-2,2.2167003E-1,-3.0348206E-2,7.8363195E-2,3.798965E-1,-9.3361676E-2,4.0261853E-2,-6.1535563E-2,1.5102762E-1,1.6313764E-1,4.9023353E-2,1.1594534E-2,-2.2840373E-1,2.3460081E-1,-1.6177197E-1,-4.444821E-2,1.7059892E-1,8.3232885E-3,2.131714E-1,-4.64417E-2,2.6926705E-1,-2.1774636E-1,-3.8925365E-2,1.6273573E-1,2.4916077E-2],"categories":[],"categories_nodes":[],"categories_segments":[],"categories_sizes":[],"default_left":[0,0,0,0,0,0,0,0,0,0,0,0,0,0,0,0,0,0,0,0,0,0,0,0,0,0,0,0,0,0,0,0,0,0,0,0,0,0,0,0,0,0,0,0,0,0,0,0,0,0,0,0,0,0,0,0,0,0,0,0,0,0,0,0,0,0,0,0,0,0,0,0,0,0,0,0,0,0,0,0,0,0,0,0,0,0,0,0,0,0,0,0,0,0,0,0,0,0,0,0,0,0,0,0,0,0,0,0,0,0,0,0,0,0,0,0,0,0,0],"id":11,"left_children":[1,3,5,7,9,11,13,15,17,19,21,23,25,27,29,31,33,35,37,39,41,43,45,47,49,51,53,55,57,59,61,63,65,67,69,71,73,-1,-1,75,77,79,81,83,85,87,89,91,93,95,-1,97,99,101,103,105,107,109,-1,111,113,115,117,-1,-1,-1,-1,-1,-1,-1,-1,-1,-1,-1,-1,-1,-1,-1,-1,-1,-1,-1,-1,-1,-1,-1,-1,-1,-1,-1,-1,-1,-1,-1,-1,-1,-1,-1,-1,-1,-1,-1,-1,-1,-1,-1,-1,-1,-1,-1,-1,-1,-1,-1,-1,-1,-1,-1,-1],"loss_changes":[1.4518834E2,4.2817043E1,9.211967E0,1.46143875E1,3.585043E1,7.6092377E0,6.253605E0,1.4790108E1,9.457485E0,1.98909E1,3.1029497E1,5.0104995E0,8.08844E0,3.6689394E0,5.224102E0,1.0888367E1,1.0957377E1,5.306045E0,1.279087E-1,1.4056747E1,9.035188E0,2.7528355E1,1.2885742E1,6.4263654E0,3.633203E0,4.18645E0,1.2996895E1,4.0614824E0,4.248282E0,3.9154472E0,3.9328737E0,1.4955963E1,7.158226E0,8.312239E0,8.199571E0,5.8469176E-1,4.450259E0,0E0,0E0,9.883206E0,1.1909279E1,6.6808653E0,7.293741E0,1.4877943E1,2.6030106E1,6.3878956E0,9.113419E0,6.1412625E0,6.173744E0,1.433178E0,0E0,4.272052E0,4.6097164E0,7.4409027E0,6.3274765E0,4.1557913E0,2.4952362E0,3.194272E0,0E0,1.7959702E0,3.4528732E0,1.2941909E-1,4.1121006E0,0E0,0E0,0E0,0E0,0E0,0E0,0E0,0E0,0E0,0E0,0E0,0E0,0E0,0E0,0E0,0E0,0E0,0E0,0E0,0E0,0E0,0E0,0E0,0E0,0E0,0E0,0E0,0E0,0E0,0E0,0E0,0E0,0E0,0E0,0E0,0E0,0E0,0E0,0E0,0E0,0E0,0E0,0E0,0E0,0E0,0E0,0E0,0E0,0E0,0E0,0E0,0E0,0E0,0E0,0E0,0E0],"parents":[2147483647,0,0,1,1,2,2,3,3,4,4,5,5,6,6,7,7,8,8,9,9,10,10,11,11,12,12,13,13,14,14,15,15,16,16,17,17,18,18,19,19,20,20,21,21,22,22,23,23,24,24,25,25,26,26,27,27,28,28,29,29,30,30,31,31,32,32,33,33,34,34,35,35,36,36,39,39,40,40,41,41,42,42,43,43,44,44,45,45,46,46,47,47,48,48,49,49,51,51,52,52,53,53,54,54,55,55,56,56,57,57,59,59,60,60,61,61,62,62],"right_children":[2,4,6,8,10,12,14,16,18,20,22,24,26,28,30,32,34,36,38,40,42,44,46,48,50,52,54,56,58,60,62,64,66,68,70,72,74,-1,-1,76,78,80,82,84,86,88,90,92,94,96,-1,98,100,102,104,106,108,110,-1,112,114,116,118,-1,-1,-1,-1,-1,-1,-1,-1,-1,-1,-1,-1,-1,-1,-1,-1,-1,-1,-1,-1,-1,-1,-1,-1,-1,-1,-1,-1,-1,-1,-1,-1,-1,-1,-1,-1,-1,-1,-1,-1,-1,-1,-1,-1,-1,-1,-1,-1,-1,-1,-1,-1,-1,-1,-1,-1],"split_conditions":[1E0,1.0369E2,2.37913E3,8.629E1,5.6E1,2.827E1,8.17E0,4.869E1,8.979E1,5.156E1,1E0,9.057E3,5.67E0,1.7491E2,7.09E0,6.96E0,9.8E1,5.33E0,5.02E3,6.48E0,1E0,6.2916E2,3.2907E2,5.104E3,3.864E1,3.05E1,6.77E0,7.2E1,2.108E3,2.44E1,1.651E1,6.974E1,6.89E0,2.6E1,5.28E0,9.095E3,4.98E3,-4.2086503E-1,-1.0479698E-1,8.07E0,3E1,1.604E1,1.34E2,5.574E1,4.59E0,5.14E0,1.693E1,2.5E1,1.982E1,9.89E0,-1.6597787E-1,1.82452E3,3E1,2E1,2.89E0,1E0,7.74E0,5.8E-1,-3.1875658E-1,1.53E2,3.5E1,3.8E1,7.234E1,-1.934789E-1,-5.427685E-2,-8.570603E-2,-2.0514496E-1,-2.707372E-1,-6.362439E-2,-1.4303598E-1,4.1981988E-2,-1.70853E-1,4.267745E-2,3.520841E-2,2.3311666E-1,-9.760408E-3,-2.213807E-1,-1.7495081E-1,-7.4463844E-2,-2.3703817E-3,-1.397867E-1,3.1396206E-2,1.9953907E-1,-8.320065E-2,5.914158E-2,8.8478565E-2,1.615429E-2,-1.2595554E-1,-4.214136E-2,2.0759897E-1,6.928359E-3,-7.210696E-2,7.98684E-2,-5.270127E-2,9.915572E-2,2.2167003E-1,-3.0348206E-2,7.8363195E-2,3.798965E-1,-9.3361676E-2,4.0261853E-2,-6.1535563E-2,1.5102762E-1,1.6313764E-1,4.9023353E-2,1.1594534E-2,-2.2840373E-1,2.3460081E-1,-1.6177197E-1,-4.444821E-2,1.7059892E-1,8.3232885E-3,2.131714E-1,-4.64417E-2,2.6926705E-1,-2.1774636E-1,-3.8925365E-2,1.6273573E-1,2.4916077E-2],"split_indices":[29,13,9,8,3,5,14,5,8,5,27,0,4,13,10,4,1,4,0,11,28,9,13,0,7,5,4,2,12,5,5,13,11,2,4,0,0,0,0,4,2,11,1,5,11,4,7,2,14,10,0,9,3,2,14,33,4,6,0,1,1,2,8,0,0,0,0,0,0,0,0,0,0,0,0,0,0,0,0,0,0,0,0,0,0,0,0,0,0,0,0,0,0,0,0,0,0,0,0,0,0,0,0,0,0,0,0,0,0,0,0,0,0,0,0,0,0,0,0],"split_type":[0,0,0,0,0,0,0,0,0,0,0,0,0,0,0,0,0,0,0,0,0,0,0,0,0,0,0,0,0,0,0,0,0,0,0,0,0,0,0,0,0,0,0,0,0,0,0,0,0,0,0,0,0,0,0,0,0,0,0,0,0,0,0,0,0,0,0,0,0,0,0,0,0,0,0,0,0,0,0,0,0,0,0,0,0,0,0,0,0,0,0,0,0,0,0,0,0,0,0,0,0,0,0,0,0,0,0,0,0,0,0,0,0,0,0,0,0,0,0],"sum_hessian":[8.367E3,6.697E3,1.67E3,9.97E2,5.7E3,1.404E3,2.66E2,9.46E2,5.1E1,1.589E3,4.111E3,3.73E2,1.031E3,8.4E1,1.82E2,6.36E2,3.1E2,4.8E1,3E0,1.166E3,4.23E2,3.07E3,1.041E3,3.49E2,2.4E1,2.68E2,7.63E2,3.9E1,4.5E1,7.9E1,1.03E2,4.24E2,2.12E2,1.3E2,1.8E2,6E0,4.2E1,2E0,1E0,3.89E2,7.77E2,3.11E2,1.12E2,3.95E2,2.675E3,9.39E2,1.02E2,1.98E2,1.51E2,2.2E1,2E0,2.2E1,2.46E2,3.46E2,4.17E2,3.1E1,8E0,4.4E1,1E0,1.6E1,6.3E1,3E0,1E2,8.7E1,3.37E2,6.9E1,1.43E2,2E1,1.1E2,2.4E1,1.56E2,5E0,1E0,1.8E1,2.4E1,3.69E2,2E1,1.27E2,6.5E2,2.76E2,3.5E1,8E1,3.2E1,3.12E2,8.3E1,5.68E2,2.107E3,9E1,8.49E2,2.7E1,7.5E1,2.7E1,1.71E2,1.22E2,2.9E1,2E1,2E0,1.7E1,5E0,2.5E1,2.21E2,1.5E1,3.31E2,4.9E1,3.68E2,2.3E1,8E0,7E0,1E0,7E0,3.7E1,1.1E1,5E0,3E0,6E1,2E0,1E0,7.3E1,2.7E1],"tree_param":{"num_deleted":"0","num_feature":"36","num_nodes":"119","size_leaf_vector":"1"}},{"base_weights":[7.142399E-4,-4.548429E-2,1.8589498E-1,-9.776872E-2,6.109698E-2,6.210673E-2,2.251888E-1,-1.3602813E-1,7.004832E-2,1.1095825E-1,-1.5423463E-1,-7.338996E-2,1.9931677E-1,1.34884E-1,2.9177237E-1,-1.8116087E-1,1.7672234E-3,-3.387511E-1,1.01566255E-1,8.7554395E-2,4.8216513E-1,-1.864922E-1,3.5644317E-1,7.207433E-2,-2.00832E-1,2.9701725E-1,-5.8961563E-2,3.3116484E-1,7.1206845E-2,3.102602E-1,-1.20612085E-1,-1.4635147E-1,-4.125269E-1,4.916308E-1,-3.93013E-2,-5.894137E-1,1.2100313E-1,-2.7522013E-2,1.7613655E-1,1.3397473E-1,-7.9645604E-2,-5.657439E-2,6.159311E-1,-4.679397E-1,-1.0795954E-1,-6.932666E-1,6.5353394E-1,1.2556154E-1,-5.3198004E-1,-4.9642205E-1,-1.5308268E-2,3.4461835E-1,-3.848198E-1,2.8204384E-1,-1.13375664E-1,2.5001448E-1,7.73106E-1,1.4617683E-2,2.8048378E-1,7.753495E-3,3.392165E-1,1.8996115E-1,-4.430579E-1,-1.06391005E-1,-3.4370463E-2,-1.5225866E-1,-2.9759057E-2,1.18403584E-1,5.0192213E-1,-2.913527E-2,6.271353E-2,-1.15777455E-1,-3.422817E-1,1.1236486E-1,-2.4478936E-1,-4.2141233E-2,5.995624E-2,8.426361E-2,2.0191437E-3,3.4351544E-3,7.4677676E-2,-6.879672E-2,1.5632926E-2,5.2794505E-2,-1.7401472E-1,4.0294668E-1,1.6003422E-1,-2.3049004E-1,-7.8765415E-2,-7.3862416E-3,-9.977313E-2,-2.2893398E-1,-5.160499E-2,2.9596838E-1,-3.1764816E-2,8.513303E-2,-1.5087425E-2,-3.1267056E-1,7.165018E-2,3.6164984E-2,-1.9354126E-1,-6.9213584E-2,5.1420163E-2,2.4094963E-2,1.3699819E-1,-1.8084273E-1,2.3656255E-1,1.0823966E-3,-1.2533212E-1,-8.409086E-3,1.0951751E-1,2.971262E-1,6.840992E-2,2.0826068E-2,-7.976247E-2,5.7074428E-2,2.0070423E-1,-3.3990346E-2,1.5647689E-1,1.2350839E-1,5.6325335E-2,1.4532739E-1,-1.2918778E-1,7.5834274E-2,-1.6815577E-1],"categories":[],"categories_nodes":[],"categories_segments":[],"categories_sizes":[],"default_left":[0,0,0,0,0,0,0,0,0,0,0,0,0,0,0,0,0,0,0,0,0,0,0,0,0,0,0,0,0,0,0,0,0,0,0,0,0,0,0,0,0,0,0,0,0,0,0,0,0,0,0,0,0,0,0,0,0,0,0,0,0,0,0,0,0,0,0,0,0,0,0,0,0,0,0,0,0,0,0,0,0,0,0,0,0,0,0,0,0,0,0,0,0,0,0,0,0,0,0,0,0,0,0,0,0,0,0,0,0,0,0,0,0,0,0,0,0,0,0,0,0,0,0,0,0],"id":12,"left_children":[1,3,5,7,9,11,13,15,17,19,21,23,25,27,29,31,33,35,37,39,41,43,45,47,49,51,53,55,57,59,61,63,65,67,69,71,73,75,77,79,81,83,85,87,89,91,93,95,97,99,101,103,105,-1,107,109,111,113,115,117,119,121,123,-1,-1,-1,-1,-1,-1,-1,-1,-1,-1,-1,-1,-1,-1,-1,-1,-1,-1,-1,-1,-1,-1,-1,-1,-1,-1,-1,-1,-1,-1,-1,-1,-1,-1,-1,-1,-1,-1,-1,-1,-1,-1,-1,-1,-1,-1,-1,-1,-1,-1,-1,-1,-1,-1,-1,-1,-1,-1,-1,-1,-1,-1],"loss_changes":[7.159734E1,3.733085E1,8.113949E0,2.8863625E1,2.3691551E1,7.525596E0,7.5848923E0,2.2762161E1,1.0792974E1,1.5517399E1,6.9028625E0,3.7962809E0,5.0895295E0,6.725663E0,5.595398E0,2.2143707E1,1.8205969E1,6.9859133E0,7.474741E0,1.3096527E1,7.6737347E0,8.591684E0,8.249549E0,3.168477E0,5.969848E0,4.8712234E0,3.1510603E0,4.54072E0,4.8396077E0,6.1114807E0,3.288741E0,1.5834087E1,1.0665768E1,7.3577175E0,1.2009619E1,3.9366245E0,5.532044E0,7.3474016E0,8.728135E0,1.8588373E1,7.249452E0,2.7802963E0,4.3821526E0,5.041975E0,5.73865E0,8.717728E-2,5.162589E0,2.4904842E0,3.3954155E0,3.931409E0,2.7743518E0,4.0203E0,3.0331426E0,0E0,1.9244254E0,3.6248016E0,2.143197E0,4.9835186E0,2.9228802E0,3.9156358E0,6.9156494E0,3.3151894E0,1.4494352E0,0E0,0E0,0E0,0E0,0E0,0E0,0E0,0E0,0E0,0E0,0E0,0E0,0E0,0E0,0E0,0E0,0E0,0E0,0E0,0E0,0E0,0E0,0E0,0E0,0E0,0E0,0E0,0E0,0E0,0E0,0E0,0E0,0E0,0E0,0E0,0E0,0E0,0E0,0E0,0E0,0E0,0E0,0E0,0E0,0E0,0E0,0E0,0E0,0E0,0E0,0E0,0E0,0E0,0E0,0E0,0E0,0E0,0E0,0E0,0E0,0E0,0E0],"parents":[2147483647,0,0,1,1,2,2,3,3,4,4,5,5,6,6,7,7,8,8,9,9,10,10,11,11,12,12,13,13,14,14,15,15,16,16,17,17,18,18,19,19,20,20,21,21,22,22,23,23,24,24,25,25,26,26,27,27,28,28,29,29,30,30,31,31,32,32,33,33,34,34,35,35,36,36,37,37,38,38,39,39,40,40,41,41,42,42,43,43,44,44,45,45,46,46,47,47,48,48,49,49,50,50,51,51,52,52,54,54,55,55,56,56,57,57,58,58,59,59,60,60,61,61,62,62],"right_children":[2,4,6,8,10,12,14,16,18,20,22,24,26,28,30,32,34,36,38,40,42,44,46,48,50,52,54,56,58,60,62,64,66,68,70,72,74,76,78,80,82,84,86,88,90,92,94,96,98,100,102,104,106,-1,108,110,112,114,116,118,120,122,124,-1,-1,-1,-1,-1,-1,-1,-1,-1,-1,-1,-1,-1,-1,-1,-1,-1,-1,-1,-1,-1,-1,-1,-1,-1,-1,-1,-1,-1,-1,-1,-1,-1,-1,-1,-1,-1,-1,-1,-1,-1,-1,-1,-1,-1,-1,-1,-1,-1,-1,-1,-1,-1,-1,-1,-1,-1,-1,-1,-1,-1,-1],"split_conditions":[1E0,1.32E2,1.2589E2,2.9648E2,1.495E1,1.5762E3,5.2E1,1E0,4.7798E2,2.66697E3,2.325E1,9.49E0,3.331E1,5.1E0,2.108E3,7.76E0,1.214E1,6.1E1,3.289E1,7.43E0,5.53E0,5E1,5.69E0,9.94E0,3.395E1,1.2277E2,1.59424E3,1.33E2,1E0,3.1E1,7.6E1,5.25E0,7.9E1,6.242E1,2.28048E3,1.25E1,8.38E0,1.532E1,1.637E1,6.09E0,4.046E1,1.15E0,1.368E1,4.9E1,1E0,1.1E2,1.92345E3,1.333E1,5.87E0,3.873E1,5.6E1,3.558E3,1.21E2,2.8204384E-1,1.23E0,3.256E1,5.541E3,1.4E0,1.37E0,2.23233E3,1.28E1,2.5773E2,7.4E-1,-1.06391005E-1,-3.4370463E-2,-1.5225866E-1,-2.9759057E-2,1.18403584E-1,5.0192213E-1,-2.913527E-2,6.271353E-2,-1.15777455E-1,-3.422817E-1,1.1236486E-1,-2.4478936E-1,-4.2141233E-2,5.995624E-2,8.426361E-2,2.0191437E-3,3.4351544E-3,7.4677676E-2,-6.879672E-2,1.5632926E-2,5.2794505E-2,-1.7401472E-1,4.0294668E-1,1.6003422E-1,-2.3049004E-1,-7.8765415E-2,-7.3862416E-3,-9.977313E-2,-2.2893398E-1,-5.160499E-2,2.9596838E-1,-3.1764816E-2,8.513303E-2,-1.5087425E-2,-3.1267056E-1,7.165018E-2,3.6164984E-2,-1.9354126E-1,-6.9213584E-2,5.1420163E-2,2.4094963E-2,1.3699819E-1,-1.8084273E-1,2.3656255E-1,1.0823966E-3,-1.2533212E-1,-8.409086E-3,1.0951751E-1,2.971262E-1,6.840992E-2,2.0826068E-2,-7.976247E-2,5.7074428E-2,2.0070423E-1,-3.3990346E-2,1.5647689E-1,1.2350839E-1,5.6325335E-2,1.4532739E-1,-1.2918778E-1,7.5834274E-2,-1.6815577E-1],"split_indices":[29,1,13,13,11,9,2,28,9,9,14,11,7,11,12,4,7,2,5,4,10,3,4,10,5,13,9,3,21,3,2,4,2,5,9,11,10,14,14,4,5,6,7,2,27,3,9,14,14,8,2,0,3,0,6,5,0,6,6,9,11,13,6,0,0,0,0,0,0,0,0,0,0,0,0,0,0,0,0,0,0,0,0,0,0,0,0,0,0,0,0,0,0,0,0,0,0,0,0,0,0,0,0,0,0,0,0,0,0,0,0,0,0,0,0,0,0,0,0,0,0,0,0,0,0],"split_type":[0,0,0,0,0,0,0,0,0,0,0,0,0,0,0,0,0,0,0,0,0,0,0,0,0,0,0,0,0,0,0,0,0,0,0,0,0,0,0,0,0,0,0,0,0,0,0,0,0,0,0,0,0,0,0,0,0,0,0,0,0,0,0,0,0,0,0,0,0,0,0,0,0,0,0,0,0,0,0,0,0,0,0,0,0,0,0,0,0,0,0,0,0,0,0,0,0,0,0,0,0,0,0,0,0,0,0,0,0,0,0,0,0,0,0,0,0,0,0,0,0,0,0,0,0],"sum_hessian":[8.367E3,6.697E3,1.67E3,4.493E3,2.204E3,4.03E2,1.267E3,3.659E3,8.34E2,1.79E3,4.14E2,2.03E2,2E2,5.39E2,7.28E2,2.756E3,9.03E2,5.9E1,7.75E2,1.685E3,1.05E2,3.9E2,2.4E1,9.5E1,1.08E2,1.45E2,5.5E1,1.31E2,4.08E2,6.97E2,3.1E1,2.397E3,3.59E2,6.9E1,8.34E2,3.8E1,2.1E1,2.84E2,4.91E2,1.319E3,3.66E2,2.1E1,8.4E1,8.4E1,3.06E2,5E0,1.9E1,8.8E1,7E0,4.1E1,6.7E1,1.36E2,9E0,2E0,5.3E1,1.12E2,1.9E1,3.22E2,8.6E1,6.1E1,6.36E2,1.6E1,1.5E1,3.16E2,2.081E3,2.75E2,8.4E1,6.5E1,4E0,6.77E2,1.57E2,2.9E1,9E0,1.7E1,4E0,1.9E2,9.4E1,3.03E2,1.88E2,6.39E2,6.8E2,1.71E2,1.95E2,1.5E1,6E0,7E0,7.7E1,3.3E1,5.1E1,2.24E2,8.2E1,4E0,1E0,1.3E1,6E0,4.6E1,4.2E1,4E0,3E0,8E0,3.3E1,3.1E1,3.6E1,4.1E1,9.5E1,8E0,1E0,3.9E1,1.4E1,3.3E1,7.9E1,1.3E1,6E0,2.7E2,5.2E1,7.1E1,1.5E1,5E1,1.1E1,4.29E2,2.07E2,1.1E1,5E0,2E0,1.3E1],"tree_param":{"num_deleted":"0","num_feature":"36","num_nodes":"125","size_leaf_vector":"1"}},{"base_weights":[5.9544534E-4,-3.1857055E-2,1.3067698E-1,-6.648475E-2,8.387349E-2,9.285795E-2,2.3659998E-1,-1.2007907E-1,8.623175E-3,-1.7077845E-1,1.2589982E-1,5.4694705E-2,2.3686753E-1,2.82E-1,8.856568E-3,-4.0435013E-1,-9.439868E-2,-1.3359284E-1,6.30697E-2,2.5597084E-1,-2.5894162E-1,-6.0125887E-2,1.8397728E-1,9.907304E-3,1.8684088E-1,8.115986E-1,1.9038104E-1,1.3687024E-1,3.810206E-1,-2.2309794E-1,2.1159534E-1,-5.6373686E-1,-1.6911887E-1,-1.3123291E-2,-1.5650235E-1,-2.6022416E-1,-2.759074E-2,-5.6406695E-1,7.578503E-2,-5.892499E-2,9.431556E-1,-3.6054736E-1,8.8328674E-2,-9.2168055E-2,7.592897E-1,2.406946E-1,-7.194229E-2,-4.60926E-2,1.4078422E-1,3.3097062E-1,-4.8332573E-3,1.1097109E0,-1.9263268E-2,-3.69133E-1,2.2144815E-1,-2.561858E-1,2.0284203E-1,2.4325174E-1,5.3977764E-1,-1.2420796E-2,-8.303407E-1,1.5096202E-1,2.7272567E-1,-1.4620884E-1,-3.0072317E-1,7.588402E-3,-2.0514886E-1,-1.1980826E-2,8.442372E-2,-1.3472082E-1,-4.0546194E-2,1.0377877E-1,-8.470997E-2,-3.7576877E-2,1.09499514E-1,-2.5091287E-1,5.835255E-2,-4.458894E-2,3.2127842E-2,-4.7382466E-2,2.357564E-1,1.4921509E-1,3.311606E-1,-1.4093961E-1,3.544077E-2,-1.7666598E-1,6.526675E-2,2.5648292E-2,-6.48059E-2,4.3299738E-1,1.1127259E-1,3.9580587E-2,1.0497769E-1,7.655241E-3,-1.4627145E-1,9.247133E-3,-6.465039E-2,5.0080693E-3,1.0200507E-1,4.0238194E-2,1.7607811E-1,7.900718E-2,-4.8756395E-2,4.151805E-1,1.0179623E-1,9.200535E-2,-1.3423176E-1,6.532517E-3,-1.6358681E-1,-1.2402535E-1,7.574006E-2,1.0654593E-1,-1.3706481E-1,-3.9793693E-2,1.0024036E-1,1.4323111E-1,1.145939E-2,4.6015456E-2,2.0863192E-1,-5.5625454E-2,1.5250373E-1,-3.150587E-2,-2.7236354E-1,1.5791932E-1,1.47616975E-2],"categories":[],"categories_nodes":[],"categories_segments":[],"categories_sizes":[],"default_left":[0,0,0,0,0,0,0,0,0,0,0,0,0,0,0,0,0,0,0,0,0,0,0,0,0,0,0,0,0,0,0,0,0,0,0,0,0,0,0,0,0,0,0,0,0,0,0,0,0,0,0,0,0,0,0,0,0,0,0,0,0,0,0,0,0,0,0,0,0,0,0,0,0,0,0,0,0,0,0,0,0,0,0,0,0,0,0,0,0,0,0,0,0,0,0,0,0,0,0,0,0,0,0,0,0,0,0,0,0,0,0,0,0,0,0,0,0,0,0,0,0,0,0,0,0],"id":13,"left_children":[1,3,5,7,9,11,13,15,17,19,21,23,25,27,29,31,33,35,37,39,41,43,45,47,49,51,53,55,57,59,61,63,65,67,69,71,73,75,77,79,81,83,85,87,89,91,93,95,97,99,101,103,105,107,109,111,113,115,117,119,121,123,-1,-1,-1,-1,-1,-1,-1,-1,-1,-1,-1,-1,-1,-1,-1,-1,-1,-1,-1,-1,-1,-1,-1,-1,-1,-1,-1,-1,-1,-1,-1,-1,-1,-1,-1,-1,-1,-1,-1,-1,-1,-1,-1,-1,-1,-1,-1,-1,-1,-1,-1,-1,-1,-1,-1,-1,-1,-1,-1,-1,-1,-1,-1],"loss_changes":[3.5329433E1,2.6847685E1,6.671898E0,2.0755787E1,1.6534824E1,6.7634554E0,4.5365677E0,2.1928104E1,1.664075E1,8.305841E0,1.4326229E1,5.7745895E0,6.738533E0,5.2075768E0,3.5271435E0,9.240356E0,1.3934095E1,7.979615E0,1.2434732E1,8.278458E0,6.4536533E0,8.366831E0,1.467754E1,5.356728E0,6.8252068E0,4.7274885E0,4.253541E0,3.9415574E0,4.614876E0,4.467313E0,1.5544084E0,4.4699516E0,1.0224102E1,9.464336E0,9.71402E0,3.7349586E0,1.2507004E1,6.566263E0,1.072343E1,2.382593E0,3.1064892E-1,7.429346E0,3.803729E0,6.729617E0,2.6526532E0,9.778503E0,7.4657526E0,6.678157E0,5.408642E0,7.025323E0,4.5678782E0,2.4880352E0,9.746006E-1,9.070661E-1,4.5943136E0,2.8615272E0,5.7263846E0,5.648191E0,5.907999E0,2.5267203E0,4.1081238E-1,1.425811E0,0E0,0E0,0E0,0E0,0E0,0E0,0E0,0E0,0E0,0E0,0E0,0E0,0E0,0E0,0E0,0E0,0E0,0E0,0E0,0E0,0E0,0E0,0E0,0E0,0E0,0E0,0E0,0E0,0E0,0E0,0E0,0E0,0E0,0E0,0E0,0E0,0E0,0E0,0E0,0E0,0E0,0E0,0E0,0E0,0E0,0E0,0E0,0E0,0E0,0E0,0E0,0E0,0E0,0E0,0E0,0E0,0E0,0E0,0E0,0E0,0E0,0E0,0E0],"parents":[2147483647,0,0,1,1,2,2,3,3,4,4,5,5,6,6,7,7,8,8,9,9,10,10,11,11,12,12,13,13,14,14,15,15,16,16,17,17,18,18,19,19,20,20,21,21,22,22,23,23,24,24,25,25,26,26,27,27,28,28,29,29,30,30,31,31,32,32,33,33,34,34,35,35,36,36,37,37,38,38,39,39,40,40,41,41,42,42,43,43,44,44,45,45,46,46,47,47,48,48,49,49,50,50,51,51,52,52,53,53,54,54,55,55,56,56,57,57,58,58,59,59,60,60,61,61],"right_children":[2,4,6,8,10,12,14,16,18,20,22,24,26,28,30,32,34,36,38,40,42,44,46,48,50,52,54,56,58,60,62,64,66,68,70,72,74,76,78,80,82,84,86,88,90,92,94,96,98,100,102,104,106,108,110,112,114,116,118,120,122,124,-1,-1,-1,-1,-1,-1,-1,-1,-1,-1,-1,-1,-1,-1,-1,-1,-1,-1,-1,-1,-1,-1,-1,-1,-1,-1,-1,-1,-1,-1,-1,-1,-1,-1,-1,-1,-1,-1,-1,-1,-1,-1,-1,-1,-1,-1,-1,-1,-1,-1,-1,-1,-1,-1,-1,-1,-1,-1,-1,-1,-1,-1,-1],"split_conditions":[1E0,8E1,1.41E2,9.7E1,6.9608E2,5.417E1,7.66E0,4.3E1,9.6847E2,3.82E0,1.3496E2,1.648E3,2.16E0,5.93E0,4.594E3,1.69193E3,8.34E0,4.6E1,1.651E1,4.409E1,1.14E2,1.077E1,7.57E0,7.4E1,6.77E0,9.21E0,8.054E1,4.09E0,2.0003E2,1E0,1.78E2,2.153E1,1E0,2.036E3,7.942E1,3.35E1,5.51E1,9.86E0,9.957E1,8.818E3,8.5E1,3.0815E2,4.7E-1,7.84E0,4.18E2,1.07E2,1.769E3,8.67E0,1.83491E3,9.1E1,4.015E3,6.18E1,4.751E3,2.066E3,4.301E2,9.7918E2,1.07732E3,1.049E1,6.38E0,8.13E0,1.026E1,3.07E0,2.7272567E-1,-1.4620884E-1,-3.0072317E-1,7.588402E-3,-2.0514886E-1,-1.1980826E-2,8.442372E-2,-1.3472082E-1,-4.0546194E-2,1.0377877E-1,-8.470997E-2,-3.7576877E-2,1.09499514E-1,-2.5091287E-1,5.835255E-2,-4.458894E-2,3.2127842E-2,-4.7382466E-2,2.357564E-1,1.4921509E-1,3.311606E-1,-1.4093961E-1,3.544077E-2,-1.7666598E-1,6.526675E-2,2.5648292E-2,-6.48059E-2,4.3299738E-1,1.1127259E-1,3.9580587E-2,1.0497769E-1,7.655241E-3,-1.4627145E-1,9.247133E-3,-6.465039E-2,5.0080693E-3,1.0200507E-1,4.0238194E-2,1.7607811E-1,7.900718E-2,-4.8756395E-2,4.151805E-1,1.0179623E-1,9.200535E-2,-1.3423176E-1,6.532517E-3,-1.6358681E-1,-1.2402535E-1,7.574006E-2,1.0654593E-1,-1.3706481E-1,-3.9793693E-2,1.0024036E-1,1.4323111E-1,1.145939E-2,4.6015456E-2,2.0863192E-1,-5.5625454E-2,1.5250373E-1,-3.150587E-2,-2.7236354E-1,1.5791932E-1,1.47616975E-2],"split_indices":[29,2,1,3,9,5,4,1,9,11,13,12,14,4,0,9,11,2,5,5,3,10,4,2,4,10,13,14,13,16,1,14,15,12,13,8,5,10,13,0,3,13,6,11,12,1,12,10,9,1,0,5,0,0,9,9,9,14,14,4,7,14,0,0,0,0,0,0,0,0,0,0,0,0,0,0,0,0,0,0,0,0,0,0,0,0,0,0,0,0,0,0,0,0,0,0,0,0,0,0,0,0,0,0,0,0,0,0,0,0,0,0,0,0,0,0,0,0,0,0,0,0,0,0,0],"split_type":[0,0,0,0,0,0,0,0,0,0,0,0,0,0,0,0,0,0,0,0,0,0,0,0,0,0,0,0,0,0,0,0,0,0,0,0,0,0,0,0,0,0,0,0,0,0,0,0,0,0,0,0,0,0,0,0,0,0,0,0,0,0,0,0,0,0,0,0,0,0,0,0,0,0,0,0,0,0,0,0,0,0,0,0,0,0,0,0,0,0,0,0,0,0,0,0,0,0,0,0,0,0,0,0,0,0,0,0,0,0,0,0,0,0,0,0,0,0,0,0,0,0,0,0,0],"sum_hessian":[8.367E3,6.697E3,1.67E3,5.155E3,1.542E3,1.232E3,4.38E2,3.008E3,2.147E3,2.18E2,1.324E3,9.75E2,2.57E2,3.65E2,7.3E1,2.48E2,2.76E3,5.94E2,1.553E3,3.7E1,1.81E2,3.15E2,1.009E3,7.29E2,2.46E2,1.8E1,2.39E2,1.49E2,2.16E2,3.4E1,3.9E1,1.47E2,1.01E2,1.196E3,1.564E3,2.7E2,3.24E2,3E1,1.523E3,2.6E1,1.1E1,1.4E2,4.1E1,3.04E2,1.1E1,8.26E2,1.83E2,5.11E2,2.18E2,1.4E2,1.06E2,1.3E1,5E0,1.2E1,2.27E2,2.1E1,1.28E2,1.17E2,9.9E1,2.6E1,8E0,3.7E1,2E0,1.27E2,2E1,7.4E1,2.7E1,1.097E3,9.9E1,1.05E2,1.459E3,9E0,2.61E2,2.6E2,6.4E1,2.2E1,8E0,1.86E2,1.337E3,2.4E1,2E0,4E0,7E0,1.14E2,2.6E1,6E0,3.5E1,1.25E2,1.79E2,3E0,8E0,4.15E2,4.11E2,1.49E2,3.4E1,3.52E2,1.59E2,1.35E2,8.3E1,8E1,6E1,3.9E1,6.7E1,9E0,4E0,3E0,2E0,4E0,8E0,1E1,2.17E2,5E0,1.6E1,3.6E1,9.2E1,5.4E1,6.3E1,2.9E1,7E1,2E1,6E0,1E0,7E0,7E0,3E1],"tree_param":{"num_deleted":"0","num_feature":"36","num_nodes":"125","size_leaf_vector":"1"}},{"base_weights":[5.778704E-4,2.8808065E-2,-1.1291903E-1,7.3151685E-2,-1.0463785E-1,-1.9543543E-1,-3.2224204E-2,5.9817456E-2,3.1760472E-1,-1.5466177E-1,2.2493977E-2,-9.215835E-1,-1.7622581E-1,-8.101627E-2,3.0824333E-1,-8.091058E-2,8.649597E-2,-2.8752947E-1,3.3121133E-1,-2.1956322E-1,-1.1293095E-2,-1.4854374E-2,4.7627407E-1,-1.0949067E0,1.4499746E-1,-3.7195823E-1,-1.2510248E-1,6.306053E-1,-9.362984E-2,4.3932354E-1,-1.3402951E-1,1.1577201E-1,-1.3305062E-1,1.4044954E-1,-1.4487623E-2,7.7100694E-2,3.904186E-1,-2.8406346E-1,-1.4911383E-2,8.67584E-1,-3.2815166E-2,1.2632324E-1,-1.1291274E-1,1.0277413E0,2.2464278E-1,-1.2090257E0,1.438855E-1,-1.20991826E-1,-5.1287323E-1,-1.329998E-1,1.1618453E0,-3.0183196E-1,2.821559E-1,2.4725999E-1,-1.17554955E-1,3.4589773E-1,9.554827E-1,-3.7990275E-1,1.4195117E-1,1.7998515E-2,2.597527E-1,-8.767998E-2,-1.4103227E-2,1.5036924E-2,6.1402153E-2,-9.502124E-3,9.215086E-2,-1.0139321E-1,7.437246E-2,-2.2590715E-1,1.2153124E-1,-1.7557497E-1,-7.0751585E-2,-4.5744278E-2,7.570639E-2,1.9541502E-2,3.262646E-1,1.5990553E-2,-6.805789E-2,-4.788564E-2,8.118732E-2,-1.1132148E-1,6.633287E-3,3.5953757E-1,5.190277E-2,-3.0264044E-2,1.410255E-1,-3.931345E-1,-7.9529144E-2,-1.7170468E-1,5.6174766E-2,-2.793477E-1,-1.1372777E-1,-5.734205E-2,1.2348738E-2,4.1244876E-1,7.843409E-2,9.4185956E-2,-1.8352342E-1,4.191869E-2,3.4322435E-1,-6.1000105E-2,-4.4886343E-4,1.2145222E-1,-1.5393531E-1,3.197827E-1,-3.8935807E-2,-1.8286578E-2,1.9781294E-1],"categories":[],"categories_nodes":[],"categories_segments":[],"categories_sizes":[],"default_left":[0,0,0,0,0,0,0,0,0,0,0,0,0,0,0,0,0,0,0,0,0,0,0,0,0,0,0,0,0,0,0,0,0,0,0,0,0,0,0,0,0,0,0,0,0,0,0,0,0,0,0,0,0,0,0,0,0,0,0,0,0,0,0,0,0,0,0,0,0,0,0,0,0,0,0,0,0,0,0,0,0,0,0,0,0,0,0,0,0,0,0,0,0,0,0,0,0,0,0,0,0,0,0,0,0,0,0,0,0],"id":14,"left_children":[1,3,5,7,9,11,13,15,17,19,21,23,25,27,29,31,33,-1,35,37,39,41,43,45,-1,47,49,51,53,55,57,59,61,63,65,67,69,71,73,75,77,79,81,83,85,87,-1,89,91,93,95,97,-1,99,101,103,105,-1,107,-1,-1,-1,-1,-1,-1,-1,-1,-1,-1,-1,-1,-1,-1,-1,-1,-1,-1,-1,-1,-1,-1,-1,-1,-1,-1,-1,-1,-1,-1,-1,-1,-1,-1,-1,-1,-1,-1,-1,-1,-1,-1,-1,-1,-1,-1,-1,-1,-1,-1],"loss_changes":[2.6814657E1,3.9666573E1,1.1093666E1,1.638001E1,1.06367855E1,1.1331602E1,1.4045596E1,1.7923067E1,4.8316994E0,1.1163324E1,8.023449E0,5.642765E0,7.998684E0,6.6923714E0,6.2040434E0,7.819487E0,2.1861116E1,0E0,3.8515568E0,1.089904E1,7.1216903E0,6.0777793E0,4.764715E0,3.9938526E0,0E0,5.808525E0,6.6489534E0,4.040563E0,5.9583554E0,3.6237555E0,7.9921713E0,6.6419153E0,8.23301E0,1.5159763E1,7.737928E0,3.6287093E0,3.8145962E0,8.983467E0,7.355243E0,1.5177455E0,6.144855E0,7.470316E0,9.036313E0,1.397749E0,2.1247456E0,1.375845E0,0E0,8.5939045E0,5.5786114E0,6.447914E0,4.0763664E-1,9.554179E-1,0E0,4.4690723E0,6.769347E0,3.8026686E0,1.5768833E0,0E0,2.2449596E0,0E0,0E0,0E0,0E0,0E0,0E0,0E0,0E0,0E0,0E0,0E0,0E0,0E0,0E0,0E0,0E0,0E0,0E0,0E0,0E0,0E0,0E0,0E0,0E0,0E0,0E0,0E0,0E0,0E0,0E0,0E0,0E0,0E0,0E0,0E0,0E0,0E0,0E0,0E0,0E0,0E0,0E0,0E0,0E0,0E0,0E0,0E0,0E0,0E0,0E0],"parents":[2147483647,0,0,1,1,2,2,3,3,4,4,5,5,6,6,7,7,8,8,9,9,10,10,11,11,12,12,13,13,14,14,15,15,16,16,18,18,19,19,20,20,21,21,22,22,23,23,25,25,26,26,27,27,28,28,29,29,30,30,31,31,32,32,33,33,34,34,35,35,36,36,37,37,38,38,39,39,40,40,41,41,42,42,43,43,44,44,45,45,47,47,48,48,49,49,50,50,51,51,53,53,54,54,55,55,56,56,58,58],"right_children":[2,4,6,8,10,12,14,16,18,20,22,24,26,28,30,32,34,-1,36,38,40,42,44,46,-1,48,50,52,54,56,58,60,62,64,66,68,70,72,74,76,78,80,82,84,86,88,-1,90,92,94,96,98,-1,100,102,104,106,-1,108,-1,-1,-1,-1,-1,-1,-1,-1,-1,-1,-1,-1,-1,-1,-1,-1,-1,-1,-1,-1,-1,-1,-1,-1,-1,-1,-1,-1,-1,-1,-1,-1,-1,-1,-1,-1,-1,-1,-1,-1,-1,-1,-1,-1,-1,-1,-1,-1,-1,-1],"split_conditions":[1E0,1E0,2.0331E2,3.3382E2,1.14E2,1.674E1,2.169E1,5.36E0,4E1,5.016E1,3.809E1,1.889E1,8.3877E2,3.4E-1,2.18933E3,4.64E0,7.22E0,-2.8752947E-1,2.524E1,1.45E2,1.06E1,1.058E1,9.2E1,7.96E0,1.4499746E-1,9.61E0,2.79048E3,4.8E1,6.65E2,1E0,6.9E-1,2.60159E3,8.5E1,6.12E0,2.67876E3,3.6E1,3.02E1,3.36E2,2.5513E2,5.78E0,1.25E1,7.3E1,1.522E1,1E0,5.488E1,2.55737E3,1.438855E-1,5.71E0,5.5E1,1E0,9.5E1,9.18E2,2.821559E-1,1.04E1,1.19E2,8.805E1,1.5E0,-3.7990275E-1,7.305E1,1.7998515E-2,2.597527E-1,-8.767998E-2,-1.4103227E-2,1.5036924E-2,6.1402153E-2,-9.502124E-3,9.215086E-2,-1.0139321E-1,7.437246E-2,-2.2590715E-1,1.2153124E-1,-1.7557497E-1,-7.0751585E-2,-4.5744278E-2,7.570639E-2,1.9541502E-2,3.262646E-1,1.5990553E-2,-6.805789E-2,-4.788564E-2,8.118732E-2,-1.1132148E-1,6.633287E-3,3.5953757E-1,5.190277E-2,-3.0264044E-2,1.410255E-1,-3.931345E-1,-7.9529144E-2,-1.7170468E-1,5.6174766E-2,-2.793477E-1,-1.1372777E-1,-5.734205E-2,1.2348738E-2,4.1244876E-1,7.843409E-2,9.4185956E-2,-1.8352342E-1,4.191869E-2,3.4322435E-1,-6.1000105E-2,-4.4886343E-4,1.2145222E-1,-1.5393531E-1,3.197827E-1,-3.8935807E-2,-1.8286578E-2,1.9781294E-1],"split_indices":[27,31,13,13,3,5,14,4,0,5,7,14,9,14,9,11,4,0,5,1,7,14,1,4,0,14,9,3,0,20,6,9,1,4,9,2,8,12,13,4,11,1,14,34,8,9,0,4,3,16,1,0,0,10,1,8,6,0,8,0,0,0,0,0,0,0,0,0,0,0,0,0,0,0,0,0,0,0,0,0,0,0,0,0,0,0,0,0,0,0,0,0,0,0,0,0,0,0,0,0,0,0,0,0,0,0,0,0,0],"split_type":[0,0,0,0,0,0,0,0,0,0,0,0,0,0,0,0,0,0,0,0,0,0,0,0,0,0,0,0,0,0,0,0,0,0,0,0,0,0,0,0,0,0,0,0,0,0,0,0,0,0,0,0,0,0,0,0,0,0,0,0,0,0,0,0,0,0,0,0,0,0,0,0,0,0,0,0,0,0,0,0,0,0,0,0,0,0,0,0,0,0,0,0,0,0,0,0,0,0,0,0,0,0,0,0,0,0,0,0,0],"sum_hessian":[8.367E3,6.701E3,1.666E3,5.03E3,1.671E3,8.23E2,8.43E2,4.771E3,2.59E2,1.199E3,4.72E2,2E1,8.03E2,7.38E2,1.05E2,7.6E2,4.011E3,2E0,2.57E2,8.25E2,3.74E2,4.37E2,3.5E1,1.8E1,2E0,1.65E2,6.38E2,1.2E1,7.26E2,8.1E1,2.4E1,1.59E2,6.01E2,2.614E3,1.397E3,4.9E1,2.08E2,6.27E2,1.98E2,8E0,3.66E2,1.79E2,2.58E2,1E1,2.5E1,1.7E1,1E0,6E1,1.05E2,6.35E2,3E0,3E0,9E0,4.7E1,6.79E2,7E1,1.1E1,4E0,2E1,1.49E2,1E1,2.1E2,3.91E2,1.087E3,1.527E3,1.327E3,7E1,1.4E1,3.5E1,2E0,2.06E2,8.5E1,5.42E2,1.31E2,6.7E1,2E0,6E0,2.54E2,1.12E2,6E1,1.19E2,8.8E1,1.7E2,8E0,2E0,1.1E1,1.4E1,1.5E1,2E0,2.4E1,3.6E1,2.4E1,8.1E1,4.76E2,1.59E2,2E0,1E0,1E0,2E0,4.3E1,4E0,3.9E2,2.89E2,6.6E1,4E0,1E1,1E0,1.5E1,5E0],"tree_param":{"num_deleted":"0","num_feature":"36","num_nodes":"109","size_leaf_vector":"1"}},{"base_weights":[4.9564365E-4,-5.7324488E-2,3.5127975E-2,-9.2075534E-2,4.2040832E-2,6.372325E-2,-5.118958E-2,-1.9608074E-1,-5.5171546E-2,8.117164E-2,-2.0877852E-1,9.9010155E-2,-1.4149662E-2,-1.6441102E-1,-7.458897E-3,-5.450591E-1,-1.5474002E-1,-1.2057806E-1,7.978184E-3,9.371287E-3,2.052553E-1,-6.945707E-1,-7.9437606E-2,1.1162788E-2,1.8046749E-1,-8.210535E-2,8.34973E-2,-2.7929717E-1,-2.6387695E-2,-4.4073887E-2,1.5194191E-1,-7.169742E-1,-1.0015636E-1,7.8075105E-1,-1.7547251E-1,-1.6634384E-1,8.363614E-2,-1.2096902E-2,3.255516E-1,-2.9240966E-1,5.334096E-2,5.8241002E-2,4.2592496E-1,-9.29015E-3,-9.35888E-1,-1.3454767E-1,6.961579E-1,-9.794408E-3,3.6960867E-1,1.2430909E-1,3.4922934E-1,4.3157336E-1,-1.03390664E-1,2.4028416E-1,1.7641297E-2,-7.593293E-1,-2.2109509E-1,-5.1839787E-1,6.8688475E-2,-8.724953E-2,1.1250825E-1,-6.262268E-1,1.97629E-1,-7.7866907E-3,-2.7246085E-1,2.401318E-1,-1.4369157E-1,3.3807486E-1,-5.7992473E-2,-6.247246E-2,4.3768864E-2,2.2028798E-2,-6.572898E-2,1.759485E-1,2.7214028E-3,1.2621591E-3,-1.1059184E-1,1.4469974E-1,-1.1434837E-1,-2.1504058E-2,-2.1902879E-1,3.4698833E-2,-5.9468437E-2,5.3375654E-2,-9.542167E-2,-1.3015722E-1,1.4226556E-1,-7.304052E-2,6.8163194E-2,-1.4505114E-1,-4.153147E-1,-8.936488E-2,5.3959694E-2,7.947541E-3,3.073104E-1,-3.2878414E-2,1.7974302E-2,5.7875413E-2,2.556987E-1,4.2705722E-2,-9.762138E-2,2.3253459E-1,8.3197184E-2,1.7458254E-1,-1.2197503E-1,-3.868828E-2,8.637587E-2,5.636249E-2,3.829809E-1,-8.221811E-2,1.919733E-2,-2.761994E-1,4.6953607E-2,-2.1450054E-2,-1.2103654E-1,-2.1132773E-1,-3.951239E-2,1.8850274E-1,-1.5755625E-2,1.6207099E-1,-2.9959226E-2,5.3908907E-2,-1.3497312E-1,-2.5477105E-1,-2.3820736E-2,1.2651008E-1,3.7141482E-4],"categories":[],"categories_nodes":[],"categories_segments":[],"categories_sizes":[],"default_left":[0,0,0,0,0,0,0,0,0,0,0,0,0,0,0,0,0,0,0,0,0,0,0,0,0,0,0,0,0,0,0,0,0,0,0,0,0,0,0,0,0,0,0,0,0,0,0,0,0,0,0,0,0,0,0,0,0,0,0,0,0,0,0,0,0,0,0,0,0,0,0,0,0,0,0,0,0,0,0,0,0,0,0,0,0,0,0,0,0,0,0,0,0,0,0,0,0,0,0,0,0,0,0,0,0,0,0,0,0,0,0,0,0,0,0,0,0,0,0,0,0,0,0,0,0,0,0],"id":15,"left_children":[1,3,5,7,9,11,13,15,17,19,21,23,25,27,29,31,33,35,37,39,41,43,45,47,49,51,53,55,57,59,61,63,65,67,69,71,73,75,77,79,81,83,85,87,89,91,93,95,97,99,101,103,105,107,109,111,113,115,117,119,121,123,125,-1,-1,-1,-1,-1,-1,-1,-1,-1,-1,-1,-1,-1,-1,-1,-1,-1,-1,-1,-1,-1,-1,-1,-1,-1,-1,-1,-1,-1,-1,-1,-1,-1,-1,-1,-1,-1,-1,-1,-1,-1,-1,-1,-1,-1,-1,-1,-1,-1,-1,-1,-1,-1,-1,-1,-1,-1,-1,-1,-1,-1,-1,-1,-1],"loss_changes":[1.675848E1,1.0829178E1,1.2922211E1,8.905338E0,7.9963493E0,1.0806118E1,6.4502535E0,8.687284E0,7.088734E0,6.270189E0,6.8564343E0,1.9361616E1,8.148819E0,5.7487097E0,5.4988046E0,4.8232613E0,1.0707311E1,7.8926105E0,5.5759625E0,5.9469337E0,8.345125E0,3.794815E0,3.8550606E0,9.791782E0,1.3262848E1,7.960701E0,5.1997404E0,5.3640146E0,7.800829E0,5.188386E0,6.38096E0,6.054981E0,6.8654203E0,4.2640667E0,5.6539E0,8.731037E0,5.806493E0,4.7857366E0,5.9453964E0,5.454452E0,6.1531196E0,7.0822616E0,4.482504E0,4.43002E-1,2.7798061E0,4.3160253E0,1.291609E0,8.577534E0,5.9766054E0,8.60693E0,1.0503265E1,3.8915448E0,7.0012383E0,7.852744E0,4.8307695E0,3.2470045E0,4.827017E0,1.8494687E0,9.529774E0,4.811138E0,6.353628E0,1.1520417E0,7.3484073E0,0E0,0E0,0E0,0E0,0E0,0E0,0E0,0E0,0E0,0E0,0E0,0E0,0E0,0E0,0E0,0E0,0E0,0E0,0E0,0E0,0E0,0E0,0E0,0E0,0E0,0E0,0E0,0E0,0E0,0E0,0E0,0E0,0E0,0E0,0E0,0E0,0E0,0E0,0E0,0E0,0E0,0E0,0E0,0E0,0E0,0E0,0E0,0E0,0E0,0E0,0E0,0E0,0E0,0E0,0E0,0E0,0E0,0E0,0E0,0E0,0E0,0E0,0E0,0E0],"parents":[2147483647,0,0,1,1,2,2,3,3,4,4,5,5,6,6,7,7,8,8,9,9,10,10,11,11,12,12,13,13,14,14,15,15,16,16,17,17,18,18,19,19,20,20,21,21,22,22,23,23,24,24,25,25,26,26,27,27,28,28,29,29,30,30,31,31,32,32,33,33,34,34,35,35,36,36,37,37,38,38,39,39,40,40,41,41,42,42,43,43,44,44,45,45,46,46,47,47,48,48,49,49,50,50,51,51,52,52,53,53,54,54,55,55,56,56,57,57,58,58,59,59,60,60,61,61,62,62],"right_children":[2,4,6,8,10,12,14,16,18,20,22,24,26,28,30,32,34,36,38,40,42,44,46,48,50,52,54,56,58,60,62,64,66,68,70,72,74,76,78,80,82,84,86,88,90,92,94,96,98,100,102,104,106,108,110,112,114,116,118,120,122,124,126,-1,-1,-1,-1,-1,-1,-1,-1,-1,-1,-1,-1,-1,-1,-1,-1,-1,-1,-1,-1,-1,-1,-1,-1,-1,-1,-1,-1,-1,-1,-1,-1,-1,-1,-1,-1,-1,-1,-1,-1,-1,-1,-1,-1,-1,-1,-1,-1,-1,-1,-1,-1,-1,-1,-1,-1,-1,-1,-1,-1,-1,-1,-1,-1],"split_conditions":[6.9E1,2.14221E3,1.369E1,7.1E1,1.538E1,7.14E0,3.8E1,2.4E1,2.0331E2,4.8E1,2.25064E3,5.93E0,6.4E1,4.232E1,1E0,7.354E1,2.5E1,9.73E0,9.5E1,5.2E0,5E1,2.17111E3,1.779E1,9.4E1,5.22E1,6.8E1,7.05E2,6.0991E2,4.18E2,1E0,8.054E1,3.62E1,7.742E1,6.8E1,8.45E1,5.3E-1,8.1E1,8.08E0,2.179E1,5.2E1,7.48E0,7.27E0,7.41E1,5.4E-1,3.7E1,1E0,3.1E1,1.7603E2,5.69E0,5.089E1,3.17E0,9.34E0,2.66697E3,8.75E1,4.9E1,3.66E1,6.81E0,2.6374E2,5.1E-1,1.06E1,2.197E1,7E1,6.3E1,-7.7866907E-3,-2.7246085E-1,2.401318E-1,-1.4369157E-1,3.3807486E-1,-5.7992473E-2,-6.247246E-2,4.3768864E-2,2.2028798E-2,-6.572898E-2,1.759485E-1,2.7214028E-3,1.2621591E-3,-1.1059184E-1,1.4469974E-1,-1.1434837E-1,-2.1504058E-2,-2.1902879E-1,3.4698833E-2,-5.9468437E-2,5.3375654E-2,-9.542167E-2,-1.3015722E-1,1.4226556E-1,-7.304052E-2,6.8163194E-2,-1.4505114E-1,-4.153147E-1,-8.936488E-2,5.3959694E-2,7.947541E-3,3.073104E-1,-3.2878414E-2,1.7974302E-2,5.7875413E-2,2.556987E-1,4.2705722E-2,-9.762138E-2,2.3253459E-1,8.3197184E-2,1.7458254E-1,-1.2197503E-1,-3.868828E-2,8.637587E-2,5.636249E-2,3.829809E-1,-8.221811E-2,1.919733E-2,-2.761994E-1,4.6953607E-2,-2.1450054E-2,-1.2103654E-1,-2.1132773E-1,-3.951239E-2,